{"learner":{"attributes":{"scikit_learn":"{\"_estimator_type\": \"regressor\"}"},"feature_names":["log_GDP","log_pop","log_GHG_lag1","log_GHG_lag2","renewable_energy_pct","urban_pop_pct","industry_pct_GDP","forest_area_pct","CO2_intensity_GDP","GDP_per_capita_2015USD"],"feature_types":["float","float","float","float","float","float","float","float","float","float"],"gradient_booster":{"model":{"cats":{"enc":[],"feature_segments":[],"sorted_idx":[]},"gbtree_model_param":{"num_parallel_tree":"1","num_trees":"600"},"iteration_indptr":[0,1,2,3,4,5,6,7,8,9,10,11,12,13,14,15,16,17,18,19,20,21,22,23,24,25,26,27,28,29,30,31,32,33,34,35,36,37,38,39,40,41,42,43,44,45,46,47,48,49,50,51,52,53,54,55,56,57,58,59,60,61,62,63,64,65,66,67,68,69,70,71,72,73,74,75,76,77,78,79,80,81,82,83,84,85,86,87,88,89,90,91,92,93,94,95,96,97,98,99,100,101,102,103,104,105,106,107,108,109,110,111,112,113,114,115,116,117,118,119,120,121,122,123,124,125,126,127,128,129,130,131,132,133,134,135,136,137,138,139,140,141,142,143,144,145,146,147,148,149,150,151,152,153,154,155,156,157,158,159,160,161,162,163,164,165,166,167,168,169,170,171,172,173,174,175,176,177,178,179,180,181,182,183,184,185,186,187,188,189,190,191,192,193,194,195,196,197,198,199,200,201,202,203,204,205,206,207,208,209,210,211,212,213,214,215,216,217,218,219,220,221,222,223,224,225,226,227,228,229,230,231,232,233,234,235,236,237,238,239,240,241,242,243,244,245,246,247,248,249,250,251,252,253,254,255,256,257,258,259,260,261,262,263,264,265,266,267,268,269,270,271,272,273,274,275,276,277,278,279,280,281,282,283,284,285,286,287,288,289,290,291,292,293,294,295,296,297,298,299,300,301,302,303,304,305,306,307,308,309,310,311,312,313,314,315,316,317,318,319,320,321,322,323,324,325,326,327,328,329,330,331,332,333,334,335,336,337,338,339,340,341,342,343,344,345,346,347,348,349,350,351,352,353,354,355,356,357,358,359,360,361,362,363,364,365,366,367,368,369,370,371,372,373,374,375,376,377,378,379,380,381,382,383,384,385,386,387,388,389,390,391,392,393,394,395,396,397,398,399,400,401,402,403,404,405,406,407,408,409,410,411,412,413,414,415,416,417,418,419,420,421,422,423,424,425,426,427,428,429,430,431,432,433,434,435,436,437,438,439,440,441,442,443,444,445,446,447,448,449,450,451,452,453,454,455,456,457,458,459,460,461,462,463,464,465,466,467,468,469,470,471,472,473,474,475,476,477,478,479,480,481,482,483,484,485,486,487,488,489,490,491,492,493,494,495,496,497,498,499,500,501,502,503,504,505,506,507,508,509,510,511,512,513,514,515,516,517,518,519,520,521,522,523,524,525,526,527,528,529,530,531,532,533,534,535,536,537,538,539,540,541,542,543,544,545,546,547,548,549,550,551,552,553,554,555,556,557,558,559,560,561,562,563,564,565,566,567,568,569,570,571,572,573,574,575,576,577,578,579,580,581,582,583,584,585,586,587,588,589,590,591,592,593,594,595,596,597,598,599,600],"tree_info":[0,0,0,0,0,0,0,0,0,0,0,0,0,0,0,0,0,0,0,0,0,0,0,0,0,0,0,0,0,0,0,0,0,0,0,0,0,0,0,0,0,0,0,0,0,0,0,0,0,0,0,0,0,0,0,0,0,0,0,0,0,0,0,0,0,0,0,0,0,0,0,0,0,0,0,0,0,0,0,0,0,0,0,0,0,0,0,0,0,0,0,0,0,0,0,0,0,0,0,0,0,0,0,0,0,0,0,0,0,0,0,0,0,0,0,0,0,0,0,0,0,0,0,0,0,0,0,0,0,0,0,0,0,0,0,0,0,0,0,0,0,0,0,0,0,0,0,0,0,0,0,0,0,0,0,0,0,0,0,0,0,0,0,0,0,0,0,0,0,0,0,0,0,0,0,0,0,0,0,0,0,0,0,0,0,0,0,0,0,0,0,0,0,0,0,0,0,0,0,0,0,0,0,0,0,0,0,0,0,0,0,0,0,0,0,0,0,0,0,0,0,0,0,0,0,0,0,0,0,0,0,0,0,0,0,0,0,0,0,0,0,0,0,0,0,0,0,0,0,0,0,0,0,0,0,0,0,0,0,0,0,0,0,0,0,0,0,0,0,0,0,0,0,0,0,0,0,0,0,0,0,0,0,0,0,0,0,0,0,0,0,0,0,0,0,0,0,0,0,0,0,0,0,0,0,0,0,0,0,0,0,0,0,0,0,0,0,0,0,0,0,0,0,0,0,0,0,0,0,0,0,0,0,0,0,0,0,0,0,0,0,0,0,0,0,0,0,0,0,0,0,0,0,0,0,0,0,0,0,0,0,0,0,0,0,0,0,0,0,0,0,0,0,0,0,0,0,0,0,0,0,0,0,0,0,0,0,0,0,0,0,0,0,0,0,0,0,0,0,0,0,0,0,0,0,0,0,0,0,0,0,0,0,0,0,0,0,0,0,0,0,0,0,0,0,0,0,0,0,0,0,0,0,0,0,0,0,0,0,0,0,0,0,0,0,0,0,0,0,0,0,0,0,0,0,0,0,0,0,0,0,0,0,0,0,0,0,0,0,0,0,0,0,0,0,0,0,0,0,0,0,0,0,0,0,0,0,0,0,0,0,0,0,0,0,0,0,0,0,0,0,0,0,0,0,0,0,0,0,0,0,0,0,0,0,0,0,0,0,0,0,0,0,0,0,0,0,0,0,0,0,0,0,0,0,0,0,0,0,0,0,0,0,0,0,0,0,0,0,0,0,0,0,0,0,0,0,0,0,0,0,0,0,0,0,0,0,0,0,0,0,0,0,0,0,0,0,0,0,0,0,0,0,0,0,0,0,0,0,0,0,0,0,0,0,0,0,0,0,0],"trees":[{"base_weights":[-6.7302687E-3,-1.903864E0,3.0117073E0,-4.784196E0,-8.480771E-1,1.8793344E0,4.5761523E0,-6.5351014E0,-3.8311763E0,-1.638219E0,-1.7727655E-1,1.1841414E0,2.5168118E0,3.8144157E0,5.5188103E0,-3.8105336E-1,-6.019245E0,-4.4729557E0,-3.1709464E0,-2.1776352E0,-1.3559332E0,-5.6115025E-1,2.0149049E-1,8.8132477E-1,1.5608602E0,2.2194264E0,2.8935702E0,1.4014322E-1,1.6499692E-1,1.985892E-1,2.3318057E-1,-2.5696367E-1,-2.1902946E-1,-1.9037698E-1,-1.6180643E-1,-1.3653722E-1,-1.2023444E-1,-9.985711E-2,-7.86464E-2,-6.2189084E-2,-4.3844733E-2,-2.8500203E-2,-1.2658971E-2,1.3523638E-3,1.4895322E-2,2.973957E-2,4.0151976E-2,5.435496E-2,6.752748E-2,8.009863E-2,9.425349E-2,1.0778724E-1,1.2201977E-1],"categories":[],"categories_nodes":[],"categories_segments":[],"categories_sizes":[],"default_left":[0,0,0,0,0,0,0,0,0,0,0,0,0,0,0,0,0,0,0,0,0,0,0,0,0,0,0,0,0,0,0,0,0,0,0,0,0,0,0,0,0,0,0,0,0,0,0,0,0,0,0,0,0],"id":0,"left_children":[1,3,5,7,9,11,13,15,17,19,21,23,25,27,29,-1,31,33,35,37,39,41,43,45,47,49,51,-1,-1,-1,-1,-1,-1,-1,-1,-1,-1,-1,-1,-1,-1,-1,-1,-1,-1,-1,-1,-1,-1,-1,-1,-1,-1],"loss_changes":[3.3487875E4,1.0916232E4,3.9897559E3,1.5818711E3,1.3931521E3,5.780156E2,6.5894727E2,4.6420898E2,2.510664E2,1.8083691E2,2.0701541E2,7.037866E1,7.010303E1,3.641211E1,4.3535156E1,0E0,2.8854492E1,1.9350586E1,2.229248E0,2.2934692E1,3.9357178E1,2.5956772E1,2.0533407E1,5.1790466E0,4.8813477E0,6.7475586E0,1.0805664E0,0E0,0E0,0E0,0E0,0E0,0E0,0E0,0E0,0E0,0E0,0E0,0E0,0E0,0E0,0E0,0E0,0E0,0E0,0E0,0E0,0E0,0E0,0E0,0E0,0E0,0E0],"parents":[2147483647,0,0,1,1,2,2,3,3,4,4,5,5,6,6,7,7,8,8,9,9,10,10,11,11,12,12,13,13,14,14,16,16,17,17,18,18,19,19,20,20,21,21,22,22,23,23,24,24,25,25,26,26],"right_children":[2,4,6,8,10,12,14,16,18,20,22,24,26,28,30,-1,32,34,36,38,40,42,44,46,48,50,52,-1,-1,-1,-1,-1,-1,-1,-1,-1,-1,-1,-1,-1,-1,-1,-1,-1,-1,-1,-1,-1,-1,-1,-1,-1,-1],"split_conditions":[4.6142645E0,1.2391275E0,7.257911E0,-1.2056409E0,3.1283557E0,5.8981934E0,8.711267E0,-3.39621E0,2.7937263E-1,2.2405396E0,3.8691323E0,5.2367206E0,6.6084595E0,7.8232164E0,9.397385E0,-3.8105336E-1,-1.9372478E0,-3.8551542E-1,7.8376454E-1,1.7594601E0,2.6956875E0,3.5251834E0,4.268484E0,4.924786E0,5.5381503E0,6.2078037E0,6.91356E0,1.4014322E-1,1.6499692E-1,1.985892E-1,2.3318057E-1,-2.5696367E-1,-2.1902946E-1,-1.9037698E-1,-1.6180643E-1,-1.3653722E-1,-1.2023444E-1,-9.985711E-2,-7.86464E-2,-6.2189084E-2,-4.3844733E-2,-2.8500203E-2,-1.2658971E-2,1.3523638E-3,1.4895322E-2,2.973957E-2,4.0151976E-2,5.435496E-2,6.752748E-2,8.009863E-2,9.425349E-2,1.0778724E-1,1.2201977E-1],"split_indices":[3,3,3,3,3,3,3,3,3,3,3,3,3,3,3,0,3,3,3,3,3,3,3,3,3,3,3,0,0,0,0,0,0,0,0,0,0,0,0,0,0,0,0,0,0,0,0,0,0,0,0,0,0],"split_type":[0,0,0,0,0,0,0,0,0,0,0,0,0,0,0,0,0,0,0,0,0,0,0,0,0,0,0,0,0,0,0,0,0,0,0,0,0,0,0,0,0,0,0,0,0,0,0,0,0,0,0,0,0],"sum_hessian":[5.846E3,3.59E3,2.256E3,9.62E2,2.628E3,1.31E3,9.46E2,3.37E2,6.25E2,1.206E3,1.422E3,6.28E2,6.82E2,5.26E2,4.2E2,4.7E1,2.9E2,3.14E2,3.11E2,4.12E2,7.94E2,7.06E2,7.16E2,3.5E2,2.78E2,3.85E2,2.97E2,2.69E2,2.57E2,1.57E2,2.63E2,1.6E2,1.3E2,1.82E2,1.32E2,1.18E2,1.93E2,1.6E2,2.52E2,4.47E2,3.47E2,4.35E2,2.71E2,3.62E2,3.54E2,1.68E2,1.82E2,1.12E2,1.66E2,1.55E2,2.3E2,1.39E2,1.58E2],"tree_param":{"num_deleted":"0","num_feature":"10","num_nodes":"53","size_leaf_vector":"1"}},{"base_weights":[-6.908162E-3,-1.8697267E0,2.863306E0,-4.6622167E0,-8.595512E-1,1.7211834E0,4.363131E0,-6.1842546E0,-3.708134E0,-1.6444511E0,-2.266391E-1,1.0337678E0,2.297769E0,3.6113496E0,5.313182E0,-3.6618358E-1,-5.716979E0,-4.3008714E0,-3.1289473E0,-2.1565406E0,-1.3596582E0,-6.0864097E-1,1.2344911E-1,7.965716E-1,1.3994198E0,1.9837563E0,2.6377301E0,1.3317782E-1,1.5903604E-1,1.9068013E-1,2.2402233E-1,-2.4747434E-1,-2.087935E-1,-1.810782E-1,-1.5690738E-1,-1.3404554E-1,-1.16379485E-1,-9.80615E-2,-7.669348E-2,-6.1344747E-2,-4.4893645E-2,-2.9709095E-2,-1.6405806E-2,-3.210898E-3,1.153586E-2,2.5408344E-2,3.6682136E-2,4.875958E-2,6.0048703E-2,7.1808435E-2,8.463232E-2,9.747985E-2,1.1196228E-1],"categories":[],"categories_nodes":[],"categories_segments":[],"categories_sizes":[],"default_left":[0,0,0,0,0,0,0,0,0,0,0,0,0,0,0,0,0,0,0,0,0,0,0,0,0,0,0,0,0,0,0,0,0,0,0,0,0,0,0,0,0,0,0,0,0,0,0,0,0,0,0,0,0],"id":1,"left_children":[1,3,5,7,9,11,13,15,17,19,21,23,25,27,29,-1,31,33,35,37,39,41,43,45,47,49,51,-1,-1,-1,-1,-1,-1,-1,-1,-1,-1,-1,-1,-1,-1,-1,-1,-1,-1,-1,-1,-1,-1,-1,-1,-1,-1],"loss_changes":[3.0973371E4,9.905832E3,3.8980938E3,1.3319238E3,1.2817974E3,5.1129907E2,6.843301E2,4.445547E2,1.8428711E2,1.650752E2,1.9131525E2,5.0316895E1,6.9920654E1,4.359326E1,4.126465E1,0E0,4.0588867E1,6.354004E0,4.6347656E0,2.4230835E1,2.8952515E1,1.7900467E1,2.5124842E1,6.4552307E0,2.431305E0,5.4138184E0,4.0273438E0,0E0,0E0,0E0,0E0,0E0,0E0,0E0,0E0,0E0,0E0,0E0,0E0,0E0,0E0,0E0,0E0,0E0,0E0,0E0,0E0,0E0,0E0,0E0,0E0,0E0,0E0],"parents":[2147483647,0,0,1,1,2,2,3,3,4,4,5,5,6,6,7,7,8,8,9,9,10,10,11,11,12,12,13,13,14,14,16,16,17,17,18,18,19,19,20,20,21,21,22,22,23,23,24,24,25,25,26,26],"right_children":[2,4,6,8,10,12,14,16,18,20,22,24,26,28,30,-1,32,34,36,38,40,42,44,46,48,50,52,-1,-1,-1,-1,-1,-1,-1,-1,-1,-1,-1,-1,-1,-1,-1,-1,-1,-1,-1,-1,-1,-1,-1,-1,-1,-1],"split_conditions":[4.5476756E0,1.1925579E0,7.1986914E0,-1.0820502E0,3.0621378E0,5.780777E0,8.729663E0,-3.39621E0,1.2301378E-1,2.2279909E0,3.7790675E0,5.199261E0,6.4470687E0,7.8437366E0,9.429342E0,-3.6618358E-1,-1.910543E0,-3.5353702E-1,7.9822767E-1,1.7771871E0,2.6481798E0,3.4485993E0,4.1511374E0,4.85004E0,5.4392557E0,6.092334E0,6.7572465E0,1.3317782E-1,1.5903604E-1,1.9068013E-1,2.2402233E-1,-2.4747434E-1,-2.087935E-1,-1.810782E-1,-1.5690738E-1,-1.3404554E-1,-1.16379485E-1,-9.80615E-2,-7.669348E-2,-6.1344747E-2,-4.4893645E-2,-2.9709095E-2,-1.6405806E-2,-3.210898E-3,1.153586E-2,2.5408344E-2,3.6682136E-2,4.875958E-2,6.0048703E-2,7.1808435E-2,8.463232E-2,9.747985E-2,1.1196228E-1],"split_indices":[2,2,2,2,2,2,2,2,2,2,2,2,2,2,2,0,2,2,2,2,2,2,2,2,2,2,2,0,0,0,0,0,0,0,0,0,0,0,0,0,0,0,0,0,0,0,0,0,0,0,0,0,0],"split_type":[0,0,0,0,0,0,0,0,0,0,0,0,0,0,0,0,0,0,0,0,0,0,0,0,0,0,0,0,0,0,0,0,0,0,0,0,0,0,0,0,0,0,0,0,0,0,0,0,0,0,0,0,0],"sum_hessian":[5.791E3,3.512E3,2.279E3,9.32E2,2.58E3,1.295E3,9.84E2,3.57E2,5.75E2,1.151E3,1.429E3,5.92E2,7.03E2,5.52E2,4.32E2,4.6E1,3.11E2,2.81E2,2.94E2,4.09E2,7.42E2,6.83E2,7.46E2,3.61E2,2.31E2,3.69E2,3.34E2,3.17E2,2.35E2,1.55E2,2.77E2,1.54E2,1.57E2,1.69E2,1.12E2,1.39E2,1.55E2,1.79E2,2.3E2,4.25E2,3.17E2,4.06E2,2.77E2,3.34E2,4.12E2,1.57E2,2.04E2,8.8E1,1.43E2,1.58E2,2.11E2,1.56E2,1.78E2],"tree_param":{"num_deleted":"0","num_feature":"10","num_nodes":"53","size_leaf_vector":"1"}},{"base_weights":[7.7084857E-3,-1.7848662E0,2.7874606E0,-4.5603943E0,-8.157268E-1,1.7149987E0,4.260159E0,-6.2416277E0,-3.719191E0,-1.590148E0,-2.123154E-1,1.0291972E0,2.2707338E0,3.5610628E0,5.153571E0,-3.525411E-1,-5.683937E0,-4.249939E0,-3.0234394E0,-2.0954964E0,-1.3031524E0,-5.384676E-1,1.7222047E-1,7.862208E-1,1.3587906E0,1.941425E0,2.6010559E0,1.3248068E-1,1.5840617E-1,1.8672058E-1,2.1703613E-1,-2.4098822E-1,-2.0886272E-1,-1.809392E-1,-1.5323552E-1,-1.284712E-1,-1.1201005E-1,-9.6759915E-2,-7.414297E-2,-5.884238E-2,-4.2917874E-2,-2.7828684E-2,-1.2882039E-2,8.4203226E-4,1.3078345E-2,2.575933E-2,3.6026977E-2,4.8212044E-2,5.9343945E-2,7.057643E-2,8.2788944E-2,9.6208E-2,1.1146802E-1],"categories":[],"categories_nodes":[],"categories_segments":[],"categories_sizes":[],"default_left":[0,0,0,0,0,0,0,0,0,0,0,0,0,0,0,0,0,0,0,0,0,0,0,0,0,0,0,0,0,0,0,0,0,0,0,0,0,0,0,0,0,0,0,0,0,0,0,0,0,0,0,0,0],"id":2,"left_children":[1,3,5,7,9,11,13,15,17,19,21,23,25,27,29,-1,31,33,35,37,39,41,43,45,47,49,51,-1,-1,-1,-1,-1,-1,-1,-1,-1,-1,-1,-1,-1,-1,-1,-1,-1,-1,-1,-1,-1,-1,-1,-1,-1,-1],"loss_changes":[2.8826145E4,9.456567E3,3.5748027E3,1.2637598E3,1.2183666E3,4.9845996E2,5.781211E2,3.830703E2,2.1203516E2,1.6289648E2,1.840798E2,4.6180847E1,7.381421E1,4.0456055E1,2.9813477E1,0E0,8.088379E0,2.198877E1,2.2299805E0,2.7760376E1,2.6677124E1,2.6796875E1,1.5759132E1,4.98761E0,2.9818726E0,4.6829834E0,6.350586E0,0E0,0E0,0E0,0E0,0E0,0E0,0E0,0E0,0E0,0E0,0E0,0E0,0E0,0E0,0E0,0E0,0E0,0E0,0E0,0E0,0E0,0E0,0E0,0E0,0E0,0E0],"parents":[2147483647,0,0,1,1,2,2,3,3,4,4,5,5,6,6,7,7,8,8,9,9,10,10,11,11,12,12,13,13,14,14,16,16,17,17,18,18,19,19,20,20,21,21,22,22,23,23,24,24,25,25,26,26],"right_children":[2,4,6,8,10,12,14,16,18,20,22,24,26,28,30,-1,32,34,36,38,40,42,44,46,48,50,52,-1,-1,-1,-1,-1,-1,-1,-1,-1,-1,-1,-1,-1,-1,-1,-1,-1,-1,-1,-1,-1,-1,-1,-1,-1,-1],"split_conditions":[4.588124E0,1.1356511E0,7.293702E0,-1.391508E0,3.0621378E0,5.821004E0,8.814045E0,-3.39621E0,1.2301378E-1,2.2279909E0,3.8781953E0,5.199261E0,6.4975863E0,8.019592E0,9.550581E0,-3.525411E-1,-2.0572886E0,-4.8906413E-1,7.9822767E-1,1.7113986E0,2.6481798E0,3.4968984E0,4.2513056E0,4.891269E0,5.507717E0,6.138823E0,6.8803787E0,1.3248068E-1,1.5840617E-1,1.8672058E-1,2.1703613E-1,-2.4098822E-1,-2.0886272E-1,-1.809392E-1,-1.5323552E-1,-1.284712E-1,-1.1201005E-1,-9.6759915E-2,-7.414297E-2,-5.884238E-2,-4.2917874E-2,-2.7828684E-2,-1.2882039E-2,8.4203226E-4,1.3078345E-2,2.575933E-2,3.6026977E-2,4.8212044E-2,5.9343945E-2,7.057643E-2,8.2788944E-2,9.6208E-2,1.1146802E-1],"split_indices":[2,2,2,2,2,2,2,2,2,2,2,2,2,2,2,0,2,2,2,2,2,2,2,2,2,2,2,0,0,0,0,0,0,0,0,0,0,0,0,0,0,0,0,0,0,0,0,0,0,0,0,0,0],"split_type":[0,0,0,0,0,0,0,0,0,0,0,0,0,0,0,0,0,0,0,0,0,0,0,0,0,0,0,0,0,0,0,0,0,0,0,0,0,0,0,0,0,0,0,0,0,0,0,0,0,0,0,0,0],"sum_hessian":[5.783E3,3.516E3,2.267E3,9.09E2,2.607E3,1.313E3,9.54E2,3.01E2,6.08E2,1.141E3,1.466E3,5.89E2,7.24E2,5.38E2,4.16E2,5.1E1,2.5E2,3.42E2,2.66E2,4.11E2,7.3E2,7.93E2,6.73E2,3.41E2,2.48E2,3.66E2,3.58E2,3.37E2,2.01E2,1.56E2,2.6E2,1.37E2,1.13E2,2.01E2,1.41E2,1.37E2,1.29E2,1.72E2,2.39E2,4.19E2,3.11E2,4.58E2,3.35E2,3.41E2,3.32E2,1.55E2,1.86E2,1.16E2,1.32E2,1.6E2,2.06E2,1.81E2,1.77E2],"tree_param":{"num_deleted":"0","num_feature":"10","num_nodes":"53","size_leaf_vector":"1"}},{"base_weights":[-1.147324E-2,-1.7334274E0,2.6476953E0,-4.3077664E0,-8.061212E-1,1.55149E0,3.9878855E0,-5.711819E0,-3.4215958E0,-1.4839604E0,-1.9464356E-1,9.253648E-1,2.083945E0,3.2890968E0,4.8557405E0,-3.4012118E-1,-5.290097E0,-3.928199E0,-2.8335E0,-1.9610126E0,-1.2176049E0,-5.509537E-1,1.0836174E-1,6.9420826E-1,1.2057382E0,1.7891704E0,2.391976E0,1.2010774E-1,1.4280033E-1,1.7199661E-1,2.0540254E-1,-2.2766685E-1,-1.9368158E-1,-1.6693667E-1,-1.4342323E-1,-1.1985967E-1,-1.05939E-1,-9.087164E-2,-7.044148E-2,-5.576298E-2,-3.985311E-2,-2.7179297E-2,-1.5785106E-2,-3.2052083E-3,1.0112956E-2,2.153141E-2,3.1159401E-2,4.216487E-2,5.3499468E-2,6.447122E-2,7.676955E-2,8.8155456E-2,1.0146858E-1],"categories":[],"categories_nodes":[],"categories_segments":[],"categories_sizes":[],"default_left":[0,0,0,0,0,0,0,0,0,0,0,0,0,0,0,0,0,0,0,0,0,0,0,0,0,0,0,0,0,0,0,0,0,0,0,0,0,0,0,0,0,0,0,0,0,0,0,0,0,0,0,0,0],"id":3,"left_children":[1,3,5,7,9,11,13,15,17,19,21,23,25,27,29,-1,31,33,35,37,39,41,43,45,47,49,51,-1,-1,-1,-1,-1,-1,-1,-1,-1,-1,-1,-1,-1,-1,-1,-1,-1,-1,-1,-1,-1,-1,-1,-1,-1,-1],"loss_changes":[2.6841912E4,8.4901875E3,3.3786748E3,1.1525215E3,1.0844147E3,4.2113525E2,6.1230664E2,3.8230957E2,1.6166943E2,1.553003E2,1.4872592E2,3.7076935E1,5.7918213E1,3.570215E1,4.9336914E1,0E0,2.9658203E1,1.099707E1,2.6660156E-1,2.3531006E1,2.9810913E1,1.2450363E1,2.0306576E1,3.8503113E0,3.8435974E0,5.074463E0,3.4476318E0,0E0,0E0,0E0,0E0,0E0,0E0,0E0,0E0,0E0,0E0,0E0,0E0,0E0,0E0,0E0,0E0,0E0,0E0,0E0,0E0,0E0,0E0,0E0,0E0,0E0,0E0],"parents":[2147483647,0,0,1,1,2,2,3,3,4,4,5,5,6,6,7,7,8,8,9,9,10,10,11,11,12,12,13,13,14,14,16,16,17,17,18,18,19,19,20,20,21,21,22,22,23,23,24,24,25,25,26,26],"right_children":[2,4,6,8,10,12,14,16,18,20,22,24,26,28,30,-1,32,34,36,38,40,42,44,46,48,50,52,-1,-1,-1,-1,-1,-1,-1,-1,-1,-1,-1,-1,-1,-1,-1,-1,-1,-1,-1,-1,-1,-1,-1,-1,-1,-1],"split_conditions":[4.5476756E0,1.1925579E0,7.152259E0,-1.0820502E0,3.1175914E0,5.713734E0,8.529891E0,-3.39621E0,2.9646835E-1,2.2667506E0,3.7790675E0,5.094197E0,6.3971596E0,7.7363777E0,9.2620535E0,-3.4012118E-1,-1.910543E0,-3.5353702E-1,8.740511E-1,1.7017436E0,2.6847475E0,3.4256265E0,4.135274E0,4.784764E0,5.4039803E0,6.041243E0,6.704031E0,1.2010774E-1,1.4280033E-1,1.7199661E-1,2.0540254E-1,-2.2766685E-1,-1.9368158E-1,-1.6693667E-1,-1.4342323E-1,-1.1985967E-1,-1.05939E-1,-9.087164E-2,-7.044148E-2,-5.576298E-2,-3.985311E-2,-2.7179297E-2,-1.5785106E-2,-3.2052083E-3,1.0112956E-2,2.153141E-2,3.1159401E-2,4.216487E-2,5.3499468E-2,6.447122E-2,7.676955E-2,8.8155456E-2,1.0146858E-1],"split_indices":[2,2,2,2,2,2,2,2,2,2,2,2,2,2,2,0,2,2,2,3,2,2,2,2,2,2,2,0,0,0,0,0,0,0,0,0,0,0,0,0,0,0,0,0,0,0,0,0,0,0,0,0,0],"split_type":[0,0,0,0,0,0,0,0,0,0,0,0,0,0,0,0,0,0,0,0,0,0,0,0,0,0,0,0,0,0,0,0,0,0,0,0,0,0,0,0,0,0,0,0,0,0,0,0,0,0,0,0,0],"sum_hessian":[5.86E3,3.557E3,2.303E3,9.41E2,2.616E3,1.268E3,1.035E3,3.62E2,5.79E2,1.24E3,1.376E3,5.84E2,6.84E2,5.76E2,4.59E2,4.5E1,3.17E2,3.08E2,2.71E2,4.42E2,7.98E2,6.32E2,7.44E2,3.22E2,2.62E2,3.53E2,3.31E2,2.91E2,2.85E2,1.59E2,3E2,1.61E2,1.56E2,1.73E2,1.35E2,1.36E2,1.35E2,1.69E2,2.73E2,4.41E2,3.57E2,3.45E2,2.87E2,3.23E2,4.21E2,1.16E2,2.06E2,1.26E2,1.36E2,1.55E2,1.98E2,1.51E2,1.8E2],"tree_param":{"num_deleted":"0","num_feature":"10","num_nodes":"53","size_leaf_vector":"1"}},{"base_weights":[-2.7224585E-2,-1.6841844E0,2.5184405E0,-4.1934123E0,-7.8168714E-1,1.4871533E0,3.8132136E0,-5.4856663E0,-3.291318E0,-1.5020242E0,-2.2882845E-1,8.710007E-1,2.0032134E0,3.1503124E0,4.654154E0,-3.2489425E-1,-5.0891294E0,-3.8027513E0,-2.7827523E0,-2.0526283E0,-1.2785285E0,-5.7108015E-1,8.718936E-2,6.545834E-1,1.1577975E0,1.7128836E0,2.2953262E0,1.1400849E-1,1.3632168E-1,1.6732495E-1,1.9849668E-1,-2.2319648E-1,-1.8761532E-1,-1.6007634E-1,-1.3899508E-1,-1.2172972E-1,-1.053578E-1,-9.192816E-2,-7.423823E-2,-5.732984E-2,-4.2199053E-2,-2.8779903E-2,-1.665175E-2,-4.2586313E-3,9.087796E-3,2.0360895E-2,3.0229276E-2,4.0554903E-2,5.1352862E-2,6.20022E-2,7.352609E-2,8.535608E-2,9.8144785E-2],"categories":[],"categories_nodes":[],"categories_segments":[],"categories_sizes":[],"default_left":[0,0,0,0,0,0,0,0,0,0,0,0,0,0,0,0,0,0,0,0,0,0,0,0,0,0,0,0,0,0,0,0,0,0,0,0,0,0,0,0,0,0,0,0,0,0,0,0,0,0,0,0,0],"id":4,"left_children":[1,3,5,7,9,11,13,15,17,19,21,23,25,27,29,-1,31,33,35,37,39,41,43,45,47,49,51,-1,-1,-1,-1,-1,-1,-1,-1,-1,-1,-1,-1,-1,-1,-1,-1,-1,-1,-1,-1,-1,-1,-1,-1,-1,-1],"loss_changes":[2.4435273E4,7.9431025E3,3.0441162E3,1.0637471E3,1.027924E3,4.030332E2,5.494873E2,3.5597168E2,1.3221191E2,1.35323E2,1.5817627E2,3.53656E1,5.4756348E1,3.429541E1,4.370996E1,0E0,3.8995117E1,3.789795E0,2.7990723E0,1.1286743E1,2.6157959E1,1.5827515E1,2.0657028E1,4.532898E0,3.2147217E0,4.3103027E0,3.5030518E0,0E0,0E0,0E0,0E0,0E0,0E0,0E0,0E0,0E0,0E0,0E0,0E0,0E0,0E0,0E0,0E0,0E0,0E0,0E0,0E0,0E0,0E0,0E0,0E0,0E0,0E0],"parents":[2147483647,0,0,1,1,2,2,3,3,4,4,5,5,6,6,7,7,8,8,9,9,10,10,11,11,12,12,13,13,14,14,16,16,17,17,18,18,19,19,20,20,21,21,22,22,23,23,24,24,25,25,26,26],"right_children":[2,4,6,8,10,12,14,16,18,20,22,24,26,28,30,-1,32,34,36,38,40,42,44,46,48,50,52,-1,-1,-1,-1,-1,-1,-1,-1,-1,-1,-1,-1,-1,-1,-1,-1,-1,-1,-1,-1,-1,-1,-1,-1,-1,-1],"split_conditions":[4.5187197E0,1.1356511E0,7.152259E0,-1.0820502E0,3.0084116E0,5.713734E0,8.529891E0,-3.39621E0,1.2301378E-1,2.0604753E0,3.7534986E0,5.094197E0,6.3971596E0,7.701861E0,9.429342E0,-3.2489425E-1,-2.0572886E0,-3.5353702E-1,6.537824E-1,1.5765841E0,2.5705032E0,3.3661919E0,4.1128197E0,4.784764E0,5.4039803E0,6.041243E0,6.7572465E0,1.1400849E-1,1.3632168E-1,1.6732495E-1,1.9849668E-1,-2.2319648E-1,-1.8761532E-1,-1.6007634E-1,-1.3899508E-1,-1.2172972E-1,-1.053578E-1,-9.192816E-2,-7.423823E-2,-5.732984E-2,-4.2199053E-2,-2.8779903E-2,-1.665175E-2,-4.2586313E-3,9.087796E-3,2.0360895E-2,3.0229276E-2,4.0554903E-2,5.1352862E-2,6.20022E-2,7.352609E-2,8.535608E-2,9.8144785E-2],"split_indices":[2,2,2,2,2,2,2,3,2,2,2,2,2,2,2,0,2,2,2,2,2,2,2,2,2,2,2,0,0,0,0,0,0,0,0,0,0,0,0,0,0,0,0,0,0,0,0,0,0,0,0,0,0],"split_type":[0,0,0,0,0,0,0,0,0,0,0,0,0,0,0,0,0,0,0,0,0,0,0,0,0,0,0,0,0,0,0,0,0,0,0,0,0,0,0,0,0,0,0,0,0,0,0,0,0,0,0,0,0],"sum_hessian":[5.791E3,3.508E3,2.283E3,9.27E2,2.581E3,1.272E3,1.011E3,3.79E2,5.48E2,1.12E3,1.461E3,5.81E2,6.91E2,5.68E2,4.43E2,4.7E1,3.32E2,2.7E2,2.78E2,3.21E2,7.99E2,7.01E2,7.6E2,3.33E2,2.48E2,3.5E2,3.41E2,2.68E2,3E2,1.81E2,2.62E2,1.43E2,1.89E2,1.61E2,1.09E2,9.4E1,1.84E2,1.38E2,1.83E2,4.69E2,3.3E2,3.56E2,3.45E2,3.19E2,4.41E2,1.39E2,1.94E2,1.2E2,1.28E2,1.58E2,1.92E2,1.76E2,1.65E2],"tree_param":{"num_deleted":"0","num_feature":"10","num_nodes":"53","size_leaf_vector":"1"}},{"base_weights":[5.6447475E-3,-1.5895506E0,2.4409556E0,-3.9896755E0,-7.2394085E-1,1.507313E0,3.7892747E0,-5.379163E0,-3.1726308E0,-1.3516154E0,-1.5960246E-1,9.153758E-1,2.051675E0,3.1703222E0,4.557653E0,-3.1336245E-1,-4.9198785E0,-3.6919334E0,-2.6355922E0,-1.8098112E0,-1.1178017E0,-4.53165E-1,1.3978983E-1,6.756605E-1,1.2254032E0,1.7810537E0,2.3558555E0,1.1778832E-1,1.4076975E-1,1.7109717E-1,1.9906692E-1,-2.164783E-1,-1.8392149E-1,-1.5726313E-1,-1.3544297E-1,-1.13024E-1,-9.8876E-2,-8.322981E-2,-6.441189E-2,-5.1159177E-2,-3.601969E-2,-2.34099E-2,-1.0925765E-2,-4.102516E-4,1.0448285E-2,2.1458315E-2,3.116057E-2,4.3531723E-2,5.446381E-2,6.5066695E-2,7.623238E-2,8.735613E-2,1.0035569E-1],"categories":[],"categories_nodes":[],"categories_segments":[],"categories_sizes":[],"default_left":[0,0,0,0,0,0,0,0,0,0,0,0,0,0,0,0,0,0,0,0,0,0,0,0,0,0,0,0,0,0,0,0,0,0,0,0,0,0,0,0,0,0,0,0,0,0,0,0,0,0,0,0,0],"id":5,"left_children":[1,3,5,7,9,11,13,15,17,19,21,23,25,27,29,-1,31,33,35,37,39,41,43,45,47,49,51,-1,-1,-1,-1,-1,-1,-1,-1,-1,-1,-1,-1,-1,-1,-1,-1,-1,-1,-1,-1,-1,-1,-1,-1,-1,-1],"loss_changes":[2.2830945E4,7.3745674E3,2.9223691E3,1.0512266E3,9.24655E2,4.415078E2,4.378369E2,3.5269824E2,1.5620654E2,1.3039282E2,1.2100047E2,4.8296448E1,5.4743652E1,3.1359375E1,2.8262695E1,0E0,2.183545E1,8.676514E0,2.2219238E0,1.913623E1,2.7604126E1,1.6365585E1,1.2427488E1,4.977249E0,3.8774414E0,4.2767334E0,3.3100586E0,0E0,0E0,0E0,0E0,0E0,0E0,0E0,0E0,0E0,0E0,0E0,0E0,0E0,0E0,0E0,0E0,0E0,0E0,0E0,0E0,0E0,0E0,0E0,0E0,0E0,0E0],"parents":[2147483647,0,0,1,1,2,2,3,3,4,4,5,5,6,6,7,7,8,8,9,9,10,10,11,11,12,12,13,13,14,14,16,16,17,17,18,18,19,19,20,20,21,21,22,22,23,23,24,24,25,25,26,26],"right_children":[2,4,6,8,10,12,14,16,18,20,22,24,26,28,30,-1,32,34,36,38,40,42,44,46,48,50,52,-1,-1,-1,-1,-1,-1,-1,-1,-1,-1,-1,-1,-1,-1,-1,-1,-1,-1,-1,-1,-1,-1,-1,-1,-1,-1],"split_conditions":[4.5476756E0,1.1925579E0,7.337181E0,-1.1890842E0,3.1483674E0,5.865861E0,8.814045E0,-3.39621E0,1.2301378E-1,2.2667506E0,3.8781953E0,5.199261E0,6.578586E0,8.019592E0,9.730941E0,-3.1336245E-1,-2.1733127E0,-4.8906413E-1,7.9822767E-1,1.7771871E0,2.711152E0,3.5186574E0,4.20777E0,4.85004E0,5.553148E0,6.21777E0,6.921702E0,1.1778832E-1,1.4076975E-1,1.7109717E-1,1.9906692E-1,-2.164783E-1,-1.8392149E-1,-1.5726313E-1,-1.3544297E-1,-1.13024E-1,-9.8876E-2,-8.322981E-2,-6.441189E-2,-5.1159177E-2,-3.601969E-2,-2.34099E-2,-1.0925765E-2,-4.102516E-4,1.0448285E-2,2.1458315E-2,3.116057E-2,4.3531723E-2,5.446381E-2,6.5066695E-2,7.623238E-2,8.735613E-2,1.0035569E-1],"split_indices":[2,2,2,2,2,2,2,2,2,2,2,2,2,2,2,0,2,2,2,2,2,2,2,2,2,2,2,0,0,0,0,0,0,0,0,0,0,0,0,0,0,0,0,0,0,0,0,0,0,0,0,0,0],"split_type":[0,0,0,0,0,0,0,0,0,0,0,0,0,0,0,0,0,0,0,0,0,0,0,0,0,0,0,0,0,0,0,0,0,0,0,0,0,0,0,0,0,0,0,0,0,0,0,0,0,0,0,0,0],"sum_hessian":[5.875E3,3.55E3,2.325E3,9.4E2,2.61E3,1.375E3,9.5E2,3.46E2,5.94E2,1.235E3,1.375E3,6.6E2,7.15E2,5.29E2,4.21E2,5.2E1,2.94E2,2.99E2,2.95E2,4.15E2,8.2E2,6.94E2,6.81E2,3.74E2,2.86E2,3.82E2,3.33E2,3.27E2,2.02E2,2.59E2,1.62E2,1.1E2,1.84E2,1.61E2,1.38E2,1.29E2,1.66E2,1.72E2,2.43E2,4.68E2,3.52E2,3.99E2,2.95E2,3.05E2,3.76E2,1.62E2,2.12E2,1.47E2,1.39E2,1.77E2,2.05E2,1.64E2,1.69E2],"tree_param":{"num_deleted":"0","num_feature":"10","num_nodes":"53","size_leaf_vector":"1"}},{"base_weights":[-1.3674214E-2,-1.5049825E0,2.3755167E0,-3.7421143E0,-6.473085E-1,1.5148573E0,3.6328244E0,-5.013525E0,-2.9179368E0,-1.271833E0,-1.3459009E-1,9.471341E-1,2.018595E0,3.0924034E0,4.403588E0,-3.0022E-1,-4.637429E0,-3.4235084E0,-2.464863E0,-1.5666759E0,-9.8777264E-1,-4.0843013E-1,1.7229612E-1,7.171621E-1,1.2645675E0,1.7630883E0,2.3218877E0,1.1483257E-1,1.3688734E-1,1.6792499E-1,1.9495054E-1,-2.0086318E-1,-1.6714706E-1,-1.4484408E-1,-1.2496343E-1,-1.0605833E-1,-9.2860036E-2,-7.3702194E-2,-5.649938E-2,-4.4537667E-2,-3.2436036E-2,-2.2066237E-2,-9.030925E-3,1.6023103E-3,1.197442E-2,2.4152348E-2,3.422526E-2,4.4685367E-2,5.4414913E-2,6.466984E-2,7.539543E-2,8.603847E-2,9.762767E-2],"categories":[],"categories_nodes":[],"categories_segments":[],"categories_sizes":[],"default_left":[0,0,0,0,0,0,0,0,0,0,0,0,0,0,0,0,0,0,0,0,0,0,0,0,0,0,0,0,0,0,0,0,0,0,0,0,0,0,0,0,0,0,0,0,0,0,0,0,0,0,0,0,0],"id":6,"left_children":[1,3,5,7,9,11,13,15,17,19,21,23,25,27,29,-1,31,33,35,37,39,41,43,45,47,49,51,-1,-1,-1,-1,-1,-1,-1,-1,-1,-1,-1,-1,-1,-1,-1,-1,-1,-1,-1,-1,-1,-1,-1,-1,-1,-1],"loss_changes":[2.057289E4,6.8186616E3,2.395707E3,1.0175205E3,8.2307654E2,3.7530078E2,3.6168164E2,3.2696094E2,1.2899854E2,9.552234E1,1.18815704E2,4.4499573E1,4.9996582E1,2.9125E1,1.5186035E1,0E0,3.858252E1,5.3125E0,2.4047852E0,2.151648E1,1.2277893E1,1.9417862E1,1.1195465E1,5.181015E0,2.15271E0,3.7791748E0,1.1669922E0,0E0,0E0,0E0,0E0,0E0,0E0,0E0,0E0,0E0,0E0,0E0,0E0,0E0,0E0,0E0,0E0,0E0,0E0,0E0,0E0,0E0,0E0,0E0,0E0,0E0,0E0],"parents":[2147483647,0,0,1,1,2,2,3,3,4,4,5,5,6,6,7,7,8,8,9,9,10,10,11,11,12,12,13,13,14,14,16,16,17,17,18,18,19,19,20,20,21,21,22,22,23,23,24,24,25,25,26,26],"right_children":[2,4,6,8,10,12,14,16,18,20,22,24,26,28,30,-1,32,34,36,38,40,42,44,46,48,50,52,-1,-1,-1,-1,-1,-1,-1,-1,-1,-1,-1,-1,-1,-1,-1,-1,-1,-1,-1,-1,-1,-1,-1,-1,-1,-1],"split_conditions":[4.6327815E0,1.3257213E0,7.3756676E0,-9.2735165E-1,3.1483674E0,5.960807E0,8.87249E0,-3.39621E0,2.9646835E-1,2.440162E0,3.9360754E0,5.3243876E0,6.654362E0,8.09168E0,9.849946E0,-3.0022E-1,-1.7372713E0,-1.8922533E-1,8.740511E-1,1.9643813E0,2.8365784E0,3.5553453E0,4.2706704E0,4.9849467E0,5.6297965E0,6.2895193E0,6.974468E0,1.1483257E-1,1.3688734E-1,1.6792499E-1,1.9495054E-1,-2.0086318E-1,-1.6714706E-1,-1.4484408E-1,-1.2496343E-1,-1.0605833E-1,-9.2860036E-2,-7.3702194E-2,-5.649938E-2,-4.4537667E-2,-3.2436036E-2,-2.2066237E-2,-9.030925E-3,1.6023103E-3,1.197442E-2,2.4152348E-2,3.422526E-2,4.4685367E-2,5.4414913E-2,6.466984E-2,7.539543E-2,8.603847E-2,9.762767E-2],"split_indices":[2,2,2,2,2,2,2,2,2,2,2,2,2,2,2,0,2,2,2,2,2,2,2,2,2,2,2,0,0,0,0,0,0,0,0,0,0,0,0,0,0,0,0,0,0,0,0,0,0,0,0,0,0],"split_type":[0,0,0,0,0,0,0,0,0,0,0,0,0,0,0,0,0,0,0,0,0,0,0,0,0,0,0,0,0,0,0,0,0,0,0,0,0,0,0,0,0,0,0,0,0,0,0,0,0,0,0,0,0],"sum_hessian":[5.772E3,3.554E3,2.218E3,9.84E2,2.57E3,1.318E3,9E2,3.85E2,5.99E2,1.158E3,1.412E3,6.21E2,6.97E2,5.32E2,3.68E2,4.8E1,3.37E2,2.8E2,3.19E2,5.66E2,5.92E2,7.46E2,6.66E2,3.62E2,2.59E2,3.82E2,3.15E2,3.24E2,2.08E2,2.63E2,1.05E2,1.78E2,1.59E2,1.62E2,1.18E2,1.31E2,1.88E2,1.99E2,3.67E2,3.43E2,2.49E2,4.17E2,3.29E2,3.27E2,3.39E2,2.02E2,1.6E2,1.07E2,1.52E2,1.8E2,2.02E2,1.37E2,1.78E2],"tree_param":{"num_deleted":"0","num_feature":"10","num_nodes":"53","size_leaf_vector":"1"}},{"base_weights":[-3.2536546E-3,-1.5292586E0,2.161003E0,-3.7610002E0,-7.508772E-1,1.2489775E0,3.34753E0,-5.3710275E0,-3.2194903E0,-1.388306E0,-2.6568377E-1,7.0714474E-1,1.7379026E0,2.770959E0,4.1156845E0,-2.9040235E-1,-1.9288807E-1,-3.7496986E0,-2.6699443E0,-1.8921485E0,-1.1739256E0,-5.577628E-1,2.4751903E-2,5.133774E-1,9.6925753E-1,1.4791845E0,1.9799918E0,9.89707E-2,1.1911057E-1,1.4599404E-1,1.7443822E-1,-1.5874344E-1,-1.3699977E-1,-1.1832221E-1,-9.773105E-2,-8.45227E-2,-6.7429915E-2,-5.263559E-2,-4.0333036E-2,-2.7716674E-2,-1.7206067E-2,-5.649848E-3,6.4022085E-3,1.5924074E-2,2.4989504E-2,3.3627663E-2,4.3892406E-2,5.3123526E-2,6.263872E-2,7.343989E-2,8.447172E-2],"categories":[],"categories_nodes":[],"categories_segments":[],"categories_sizes":[],"default_left":[0,0,0,0,0,0,0,0,0,0,0,0,0,0,0,0,0,0,0,0,0,0,0,0,0,0,0,0,0,0,0,0,0,0,0,0,0,0,0,0,0,0,0,0,0,0,0,0,0,0,0],"id":7,"left_children":[1,3,5,7,9,11,13,15,17,19,21,23,25,27,29,-1,-1,31,33,35,37,39,41,43,45,47,49,-1,-1,-1,-1,-1,-1,-1,-1,-1,-1,-1,-1,-1,-1,-1,-1,-1,-1,-1,-1,-1,-1,-1,-1],"loss_changes":[1.9343719E4,5.9642725E3,2.6167686E3,7.569072E2,7.876669E2,3.619702E2,4.5452246E2,1.9514844E2,1.8433447E2,1.1670239E2,1.228479E2,3.261679E1,4.2166992E1,2.9691895E1,3.538379E1,0E0,0E0,1.0359375E1,1.4388672E1,1.1348389E1,1.68927E1,1.2154373E1,1.6351093E1,4.5908813E0,3.621338E0,2.5358887E0,3.1258545E0,0E0,0E0,0E0,0E0,0E0,0E0,0E0,0E0,0E0,0E0,0E0,0E0,0E0,0E0,0E0,0E0,0E0,0E0,0E0,0E0,0E0,0E0,0E0,0E0],"parents":[2147483647,0,0,1,1,2,2,3,3,4,4,5,5,6,6,7,7,8,8,9,9,10,10,11,11,12,12,13,13,14,14,17,17,18,18,19,19,20,20,21,21,22,22,23,23,24,24,25,25,26,26],"right_children":[2,4,6,8,10,12,14,16,18,20,22,24,26,28,30,-1,-1,32,34,36,38,40,42,44,46,48,50,-1,-1,-1,-1,-1,-1,-1,-1,-1,-1,-1,-1,-1,-1,-1,-1,-1,-1,-1,-1,-1,-1,-1,-1],"split_conditions":[4.452921E0,1.036063E0,7.1002755E0,-1.7372713E0,2.9334419E0,5.6759667E0,8.529891E0,-3.39621E0,-1.8922533E-1,2.0095956E0,3.6786952E0,5.025202E0,6.3241787E0,7.6266875E0,9.243782E0,-2.9040235E-1,-1.9288807E-1,-8.3057183E-1,4.464151E-1,1.4895276E0,2.490035E0,3.283903E0,4.057283E0,4.7316117E0,5.3243876E0,5.960807E0,6.654362E0,9.89707E-2,1.1911057E-1,1.4599404E-1,1.7443822E-1,-1.5874344E-1,-1.3699977E-1,-1.1832221E-1,-9.773105E-2,-8.45227E-2,-6.7429915E-2,-5.263559E-2,-4.0333036E-2,-2.7716674E-2,-1.7206067E-2,-5.649848E-3,6.4022085E-3,1.5924074E-2,2.4989504E-2,3.3627663E-2,4.3892406E-2,5.3123526E-2,6.263872E-2,7.343989E-2,8.447172E-2],"split_indices":[2,2,2,2,2,2,2,2,2,2,2,2,2,2,3,0,0,2,2,2,2,2,2,2,2,2,2,0,0,0,0,0,0,0,0,0,0,0,0,0,0,0,0,0,0,0,0,0,0,0,0],"split_type":[0,0,0,0,0,0,0,0,0,0,0,0,0,0,0,0,0,0,0,0,0,0,0,0,0,0,0,0,0,0,0,0,0,0,0,0,0,0,0,0,0,0,0,0,0,0,0,0,0,0,0],"sum_hessian":[5.855E3,3.434E3,2.421E3,8.87E2,2.547E3,1.37E3,1.051E3,2.21E2,6.66E2,1.1E3,1.447E3,6.51E2,7.19E2,6.03E2,4.48E2,4.7E1,1.74E2,3.36E2,3.3E2,3.26E2,7.74E2,7.21E2,7.26E2,3.76E2,2.75E2,3.51E2,3.68E2,2.53E2,3.5E2,1.6E2,2.88E2,1.94E2,1.42E2,1.4E2,1.9E2,1.53E2,1.73E2,4.13E2,3.61E2,3.48E2,3.73E2,3.26E2,4E2,1.87E2,1.89E2,1.41E2,1.34E2,1.34E2,2.17E2,1.83E2,1.85E2],"tree_param":{"num_deleted":"0","num_feature":"10","num_nodes":"51","size_leaf_vector":"1"}},{"base_weights":[-2.530332E-2,-1.4365608E0,2.150628E0,-3.4755204E0,-6.518423E-1,1.283015E0,3.3216124E0,-4.6779017E0,-2.7488058E0,-1.2371459E0,-1.9176751E-1,7.504639E-1,1.7384259E0,2.7113857E0,3.9636543E0,-2.7741158E-1,-4.324675E0,-3.1883805E0,-2.2958949E0,-1.634394E0,-1.0549719E0,-4.845373E-1,7.162979E-2,5.5399865E-1,9.969107E-1,1.5027239E0,2.0203996E0,1.0003136E-1,1.1734408E-1,1.4352344E-1,1.7018567E-1,-1.9671208E-1,-1.6313992E-1,-1.3594767E-1,-1.17140874E-1,-9.77938E-2,-8.6045414E-2,-7.3162146E-2,-5.9643313E-2,-4.7541026E-2,-3.500791E-2,-2.381434E-2,-1.4022176E-2,-3.7307579E-3,7.7444473E-3,1.7062046E-2,2.5433868E-2,3.5103284E-2,4.4977084E-2,5.3941533E-2,6.441111E-2,7.5487465E-2,8.6462535E-2],"categories":[],"categories_nodes":[],"categories_segments":[],"categories_sizes":[],"default_left":[0,0,0,0,0,0,0,0,0,0,0,0,0,0,0,0,0,0,0,0,0,0,0,0,0,0,0,0,0,0,0,0,0,0,0,0,0,0,0,0,0,0,0,0,0,0,0,0,0,0,0,0,0],"id":8,"left_children":[1,3,5,7,9,11,13,15,17,19,21,23,25,27,29,-1,31,33,35,37,39,41,43,45,47,49,51,-1,-1,-1,-1,-1,-1,-1,-1,-1,-1,-1,-1,-1,-1,-1,-1,-1,-1,-1,-1,-1,-1,-1,-1,-1,-1],"loss_changes":[1.781987E4,5.629767E3,2.3151787E3,8.4170605E2,6.8455066E2,3.1713672E2,3.6968164E2,2.6264258E2,1.1452197E2,7.925586E1,1.0992326E2,2.8837585E1,4.395215E1,1.6109863E1,3.6208008E1,0E0,2.6666992E1,6.8793945E0,1.3171387E0,7.03656E0,1.7447083E1,9.813797E0,1.5124107E1,3.2754288E0,3.091217E0,4.279419E0,1.9195557E0,0E0,0E0,0E0,0E0,0E0,0E0,0E0,0E0,0E0,0E0,0E0,0E0,0E0,0E0,0E0,0E0,0E0,0E0,0E0,0E0,0E0,0E0,0E0,0E0,0E0,0E0],"parents":[2147483647,0,0,1,1,2,2,3,3,4,4,5,5,6,6,7,7,8,8,9,9,10,10,11,11,12,12,13,13,14,14,16,16,17,17,18,18,19,19,20,20,21,21,22,22,23,23,24,24,25,25,26,26],"right_children":[2,4,6,8,10,12,14,16,18,20,22,24,26,28,30,-1,32,34,36,38,40,42,44,46,48,50,52,-1,-1,-1,-1,-1,-1,-1,-1,-1,-1,-1,-1,-1,-1,-1,-1,-1,-1,-1,-1,-1,-1,-1,-1,-1,-1],"split_conditions":[4.5187197E0,1.2391275E0,7.2367744E0,-1.0820502E0,3.031852E0,5.780777E0,8.5113125E0,-3.39621E0,2.9646835E-1,2.1667426E0,3.7348967E0,5.094197E0,6.4975863E0,7.786978E0,9.550581E0,-2.7741158E-1,-2.3330443E0,-3.5353702E-1,8.740511E-1,1.7113986E0,2.60266E0,3.3874736E0,4.1128197E0,4.784764E0,5.4392557E0,6.092334E0,6.8803787E0,1.0003136E-1,1.1734408E-1,1.4352344E-1,1.7018567E-1,-1.9671208E-1,-1.6313992E-1,-1.3594767E-1,-1.17140874E-1,-9.77938E-2,-8.6045414E-2,-7.3162146E-2,-5.9643313E-2,-4.7541026E-2,-3.500791E-2,-2.381434E-2,-1.4022176E-2,-3.7307579E-3,7.7444473E-3,1.7062046E-2,2.5433868E-2,3.5103284E-2,4.4977084E-2,5.3941533E-2,6.441111E-2,7.5487465E-2,8.6462535E-2],"split_indices":[2,3,2,2,2,2,3,2,2,2,2,2,2,2,2,0,2,2,2,2,2,2,2,2,2,2,2,0,0,0,0,0,0,0,0,0,0,0,0,0,0,0,0,0,0,0,0,0,0,0,0,0,0],"split_type":[0,0,0,0,0,0,0,0,0,0,0,0,0,0,0,0,0,0,0,0,0,0,0,0,0,0,0,0,0,0,0,0,0,0,0,0,0,0,0,0,0,0,0,0,0,0,0,0,0,0,0,0,0],"sum_hessian":[5.801E3,3.519E3,2.282E3,9.77E2,2.542E3,1.312E3,9.7E2,3.66E2,6.11E2,1.118E3,1.424E3,6.06E2,7.06E2,5E2,4.7E2,4.7E1,3.19E2,3.07E2,3.04E2,3.49E2,7.69E2,6.74E2,7.5E2,3.39E2,2.67E2,3.88E2,3.18E2,2.63E2,2.37E2,2.11E2,2.59E2,8.8E1,2.31E2,1.63E2,1.44E2,1.42E2,1.62E2,1.43E2,2.06E2,4.38E2,3.31E2,3.67E2,3.07E2,3.19E2,4.31E2,1.35E2,2.04E2,1.42E2,1.25E2,1.65E2,2.23E2,1.71E2,1.47E2],"tree_param":{"num_deleted":"0","num_feature":"10","num_nodes":"53","size_leaf_vector":"1"}},{"base_weights":[6.428634E-4,-1.3675054E0,2.0745351E0,-3.3818998E0,-6.201535E-1,1.3130938E0,3.2304769E0,-4.4015865E0,-2.6303566E0,-1.1763675E0,-1.6267231E-1,7.9229283E-1,1.7755864E0,2.7581599E0,3.943663E0,-6.1251802E0,-4.016855E0,-3.0253448E0,-2.2186217E0,-1.5366288E0,-9.6535337E-1,-4.3847877E-1,8.743781E-2,5.8962035E-1,1.0775752E0,1.5543011E0,2.0559099E0,2.5651464E0,1.2546323E-1,1.5070914E-1,1.7604253E-1,-2.6588726E-1,-2.0269974E-1,-1.7268217E-1,-1.4792866E-1,-1.2765239E-1,-1.1081799E-1,-9.499901E-2,-8.406595E-2,-7.041993E-2,-5.4957405E-2,-4.3561187E-2,-3.1719886E-2,-2.1443088E-2,-1.1747464E-2,-1.6548258E-3,8.780356E-3,1.8567476E-2,2.7909836E-2,3.776142E-2,4.6706267E-2,5.6203507E-2,6.648196E-2,7.590478E-2,8.653687E-2,9.4459295E-2,1.06087394E-1],"categories":[],"categories_nodes":[],"categories_segments":[],"categories_sizes":[],"default_left":[0,0,0,0,0,0,0,0,0,0,0,0,0,0,0,0,0,0,0,0,0,0,0,0,0,0,0,0,0,0,0,0,0,0,0,0,0,0,0,0,0,0,0,0,0,0,0,0,0,0,0,0,0,0,0,0,0],"id":9,"left_children":[1,3,5,7,9,11,13,15,17,19,21,23,25,27,29,31,33,35,37,39,41,43,45,47,49,51,53,55,-1,-1,-1,-1,-1,-1,-1,-1,-1,-1,-1,-1,-1,-1,-1,-1,-1,-1,-1,-1,-1,-1,-1,-1,-1,-1,-1,-1,-1],"loss_changes":[1.6675354E4,5.3287427E3,2.0518643E3,7.225742E2,6.573267E2,3.382151E2,3.013828E2,2.4395996E2,8.3385254E1,8.715613E1,9.792378E1,3.781424E1,4.308008E1,3.2929688E1,1.2951172E1,6.067627E0,1.5983398E1,3.0039062E0,3.8208008E-2,1.320636E1,1.486792E1,9.381317E0,1.2682926E1,4.97908E0,2.20578E0,4.4332275E0,1.4425049E0,4.1992188E-1,0E0,0E0,0E0,0E0,0E0,0E0,0E0,0E0,0E0,0E0,0E0,0E0,0E0,0E0,0E0,0E0,0E0,0E0,0E0,0E0,0E0,0E0,0E0,0E0,0E0,0E0,0E0,0E0,0E0],"parents":[2147483647,0,0,1,1,2,2,3,3,4,4,5,5,6,6,7,7,8,8,9,9,10,10,11,11,12,12,13,13,14,14,15,15,16,16,17,17,18,18,19,19,20,20,21,21,22,22,23,23,24,24,25,25,26,26,27,27],"right_children":[2,4,6,8,10,12,14,16,18,20,22,24,26,28,30,32,34,36,38,40,42,44,46,48,50,52,54,56,-1,-1,-1,-1,-1,-1,-1,-1,-1,-1,-1,-1,-1,-1,-1,-1,-1,-1,-1,-1,-1,-1,-1,-1,-1,-1,-1,-1,-1],"split_conditions":[4.5476756E0,1.1758511E0,7.3756676E0,-9.2735165E-1,3.089769E0,5.9113016E0,8.968942E0,-3.130407E0,2.9646835E-1,2.2667506E0,3.7790675E0,5.2598057E0,6.654362E0,8.185388E0,9.94204E0,-3.39621E0,-1.7372713E0,-1.8922533E-1,7.9822767E-1,1.7771871E0,2.6847475E0,3.4485993E0,4.20777E0,4.891269E0,5.553148E0,6.252369E0,6.974468E0,7.6266875E0,1.2546323E-1,1.5070914E-1,1.7604253E-1,-2.6588726E-1,-2.0269974E-1,-1.7268217E-1,-1.4792866E-1,-1.2765239E-1,-1.1081799E-1,-9.499901E-2,-8.406595E-2,-7.041993E-2,-5.4957405E-2,-4.3561187E-2,-3.1719886E-2,-2.1443088E-2,-1.1747464E-2,-1.6548258E-3,8.780356E-3,1.8567476E-2,2.7909836E-2,3.776142E-2,4.6706267E-2,5.6203507E-2,6.648196E-2,7.590478E-2,8.653687E-2,9.4459295E-2,1.06087394E-1],"split_indices":[2,3,2,2,2,2,2,2,2,2,2,2,2,2,2,2,2,2,2,2,2,2,2,2,2,2,2,2,0,0,0,0,0,0,0,0,0,0,0,0,0,0,0,0,0,0,0,0,0,0,0,0,0,0,0,0,0],"split_type":[0,0,0,0,0,0,0,0,0,0,0,0,0,0,0,0,0,0,0,0,0,0,0,0,0,0,0,0,0,0,0,0,0,0,0,0,0,0,0,0,0,0,0,0,0,0,0,0,0,0,0,0,0,0,0,0,0],"sum_hessian":[5.875E3,3.54E3,2.335E3,9.57E2,2.583E3,1.409E3,9.26E2,4.04E2,5.53E2,1.165E3,1.418E3,6.64E2,7.45E2,5.6E2,3.66E2,7.1E1,3.33E2,2.79E2,2.74E2,4.28E2,7.37E2,6.74E2,7.44E2,3.9E2,2.74E2,4.2E2,3.25E2,3.76E2,1.84E2,2.71E2,9.5E1,4.4E1,2.7E1,1.65E2,1.68E2,1.62E2,1.17E2,1.09E2,1.65E2,1.76E2,2.52E2,4.26E2,3.11E2,4.01E2,2.73E2,3.77E2,3.67E2,1.83E2,2.07E2,1.15E2,1.59E2,1.82E2,2.38E2,1.39E2,1.86E2,1.21E2,2.55E2],"tree_param":{"num_deleted":"0","num_feature":"10","num_nodes":"57","size_leaf_vector":"1"}},{"base_weights":[-1.448419E-2,-1.3244443E0,1.9801697E0,-3.3435175E0,-6.432609E-1,1.1430204E0,2.965088E0,-4.6210346E0,-2.8167093E0,-1.2132589E0,-1.8432723E-1,6.743717E-1,1.5382044E0,2.4429195E0,3.639071E0,-2.565479E-1,-4.232671E0,-3.2394934E0,-2.3289242E0,-1.6780279E0,-1.0253537E0,-4.4649172E-1,7.773091E-2,5.106957E-1,9.056452E-1,1.3289056E0,1.7594407E0,8.961621E-2,1.0754478E-1,1.289183E-1,3.8551362E0,-1.9096102E-1,-1.6193938E-1,-1.3896582E-1,-1.1959706E-1,-1.0220626E-1,-8.5195005E-2,-7.495283E-2,-6.0039405E-2,-4.6188857E-2,-3.415339E-2,-2.2708895E-2,-1.2687846E-2,-3.3665823E-3,6.923365E-3,1.5742065E-2,2.3566596E-2,3.184205E-2,4.009704E-2,4.9203508E-2,5.7616662E-2,6.5976545E-2,7.544674E-2,1.4745064E-1,1.6825329E-1],"categories":[],"categories_nodes":[],"categories_segments":[],"categories_sizes":[],"default_left":[0,0,0,0,0,0,0,0,0,0,0,0,0,0,0,0,0,0,0,0,0,0,0,0,0,0,0,0,0,0,0,0,0,0,0,0,0,0,0,0,0,0,0,0,0,0,0,0,0,0,0,0,0,0,0],"id":10,"left_children":[1,3,5,7,9,11,13,15,17,19,21,23,25,27,29,-1,31,33,35,37,39,41,43,45,47,49,51,-1,-1,-1,53,-1,-1,-1,-1,-1,-1,-1,-1,-1,-1,-1,-1,-1,-1,-1,-1,-1,-1,-1,-1,-1,-1,-1,-1],"loss_changes":[1.5259445E4,4.845991E3,1.9053828E3,5.852871E2,6.895925E2,2.3102136E2,3.6521387E2,1.5247363E2,1.22791016E2,1.0098242E2,1.0047751E2,2.1303528E1,2.9102661E1,2.3930664E1,2.9112305E1,0E0,2.1101074E0,9.2890625E0,7.932251E0,8.86908E0,1.7652893E1,1.1278046E1,1.1314638E1,2.8842926E0,1.7157593E0,2.11792E0,1.4484863E0,0E0,0E0,0E0,2.2270508E0,0E0,0E0,0E0,0E0,0E0,0E0,0E0,0E0,0E0,0E0,0E0,0E0,0E0,0E0,0E0,0E0,0E0,0E0,0E0,0E0,0E0,0E0,0E0,0E0],"parents":[2147483647,0,0,1,1,2,2,3,3,4,4,5,5,6,6,7,7,8,8,9,9,10,10,11,11,12,12,13,13,14,14,16,16,17,17,18,18,19,19,20,20,21,21,22,22,23,23,24,24,25,25,26,26,30,30],"right_children":[2,4,6,8,10,12,14,16,18,20,22,24,26,28,30,-1,32,34,36,38,40,42,44,46,48,50,52,-1,-1,-1,54,-1,-1,-1,-1,-1,-1,-1,-1,-1,-1,-1,-1,-1,-1,-1,-1,-1,-1,-1,-1,-1,-1,-1,-1],"split_conditions":[4.5187197E0,1.036063E0,7.1002755E0,-1.5431821E0,2.9922612E0,5.713734E0,8.529891E0,-3.39621E0,-1.008153E-1,2.0095956E0,3.7790675E0,5.094197E0,6.363552E0,7.7363777E0,9.2620535E0,-2.565479E-1,-2.6823823E0,-8.3057183E-1,5.702448E-1,1.4895276E0,2.5248404E0,3.3661919E0,4.082237E0,4.784764E0,5.4039803E0,6.092334E0,6.704031E0,8.961621E-2,1.0754478E-1,1.289183E-1,9.912925E0,-1.9096102E-1,-1.6193938E-1,-1.3896582E-1,-1.1959706E-1,-1.0220626E-1,-8.5195005E-2,-7.495283E-2,-6.0039405E-2,-4.6188857E-2,-3.415339E-2,-2.2708895E-2,-1.2687846E-2,-3.3665823E-3,6.923365E-3,1.5742065E-2,2.3566596E-2,3.184205E-2,4.009704E-2,4.9203508E-2,5.7616662E-2,6.5976545E-2,7.544674E-2,1.4745064E-1,1.6825329E-1],"split_indices":[2,2,2,2,2,2,2,2,2,2,2,2,2,2,2,0,2,2,2,2,2,2,2,2,2,2,2,0,0,0,3,0,0,0,0,0,0,0,0,0,0,0,0,0,0,0,0,0,0,0,0,0,0,0,0],"split_type":[0,0,0,0,0,0,0,0,0,0,0,0,0,0,0,0,0,0,0,0,0,0,0,0,0,0,0,0,0,0,0,0,0,0,0,0,0,0,0,0,0,0,0,0,0,0,0,0,0,0,0,0,0,0,0],"sum_hessian":[5.838E3,3.524E3,2.314E3,8.88E2,2.636E3,1.252E3,1.062E3,2.57E2,6.31E2,1.175E3,1.461E3,5.74E2,6.78E2,6.01E2,4.61E2,4.3E1,2.14E2,3.35E2,2.96E2,3.36E2,8.39E2,7.3E2,7.31E2,3.38E2,2.36E2,3.52E2,3.26E2,3.35E2,2.66E2,1.63E2,2.98E2,4.8E1,1.66E2,1.66E2,1.69E2,1.33E2,1.63E2,1.55E2,1.81E2,4.75E2,3.64E2,3.75E2,3.55E2,2.71E2,4.6E2,1.38E2,2E2,1.15E2,1.21E2,1.93E2,1.59E2,1.82E2,1.44E2,2.09E2,8.9E1],"tree_param":{"num_deleted":"0","num_feature":"10","num_nodes":"55","size_leaf_vector":"1"}},{"base_weights":[-1.1679862E-2,-1.2972232E0,1.8578632E0,-3.2320106E0,-6.328085E-1,1.0561023E0,2.8398015E0,-4.4775586E0,-2.7018647E0,-1.181326E0,-2.2164185E-1,6.1262596E-1,1.4574957E0,2.34307E0,3.509714E0,-2.4501856E-1,-4.0716105E0,-3.1455433E0,-2.273266E0,-1.629015E0,-1.0080487E0,-4.9198171E-1,5.2620256E-3,4.5439735E-1,8.519647E-1,1.2496246E0,1.6599528E0,8.265372E-2,2.5205123E0,1.2912421E-1,1.533227E-1,-1.8311818E-1,-1.5557292E-1,-1.3348657E-1,-1.162586E-1,-1.00819185E-1,-8.272503E-2,-7.18629E-2,-5.8212455E-2,-4.5892425E-2,-3.4911264E-2,-2.3431763E-2,-1.5528936E-2,-5.503335E-3,5.1188623E-3,1.3703778E-2,2.1523442E-2,2.9173836E-2,3.714165E-2,4.4776514E-2,5.3215828E-2,6.264885E-2,7.1530834E-2,9.585117E-2,1.0855216E-1],"categories":[],"categories_nodes":[],"categories_segments":[],"categories_sizes":[],"default_left":[0,0,0,0,0,0,0,0,0,0,0,0,0,0,0,0,0,0,0,0,0,0,0,0,0,0,0,0,0,0,0,0,0,0,0,0,0,0,0,0,0,0,0,0,0,0,0,0,0,0,0,0,0,0,0],"id":11,"left_children":[1,3,5,7,9,11,13,15,17,19,21,23,25,27,29,-1,31,33,35,37,39,41,43,45,47,49,51,-1,53,-1,-1,-1,-1,-1,-1,-1,-1,-1,-1,-1,-1,-1,-1,-1,-1,-1,-1,-1,-1,-1,-1,-1,-1,-1,-1],"loss_changes":[1.4062176E4,4.454788E3,1.873876E3,5.7294727E2,5.82062E2,2.3301038E2,3.4816895E2,1.5099707E2,1.1150928E2,8.415503E1,9.0603485E1,2.3319626E1,2.692212E1,2.5137695E1,2.8967285E1,0E0,1.9472656E0,4.227539E0,1.1066406E1,6.320801E0,1.4068726E1,6.3331757E0,1.4110516E1,3.361824E0,1.6514282E0,2.1287231E0,1.3607178E0,0E0,2.4296875E0,0E0,0E0,0E0,0E0,0E0,0E0,0E0,0E0,0E0,0E0,0E0,0E0,0E0,0E0,0E0,0E0,0E0,0E0,0E0,0E0,0E0,0E0,0E0,0E0,0E0,0E0],"parents":[2147483647,0,0,1,1,2,2,3,3,4,4,5,5,6,6,7,7,8,8,9,9,10,10,11,11,12,12,13,13,14,14,16,16,17,17,18,18,19,19,20,20,21,21,22,22,23,23,24,24,25,25,26,26,28,28],"right_children":[2,4,6,8,10,12,14,16,18,20,22,24,26,28,30,-1,32,34,36,38,40,42,44,46,48,50,52,-1,54,-1,-1,-1,-1,-1,-1,-1,-1,-1,-1,-1,-1,-1,-1,-1,-1,-1,-1,-1,-1,-1,-1,-1,-1,-1,-1],"split_conditions":[4.452921E0,1.036063E0,7.0445995E0,-1.5431821E0,2.9334419E0,5.6759667E0,8.529891E0,-3.39621E0,-1.8922533E-1,1.9643813E0,3.6320498E0,5.0615907E0,6.3241787E0,7.5701504E0,9.649698E0,-2.4501856E-1,-2.6823823E0,-8.3057183E-1,4.464151E-1,1.4895276E0,2.459264E0,3.283903E0,4.030776E0,4.7316117E0,5.3243876E0,5.960807E0,6.704031E0,8.265372E-2,8.070539E0,1.2912421E-1,1.533227E-1,-1.8311818E-1,-1.5557292E-1,-1.3348657E-1,-1.162586E-1,-1.00819185E-1,-8.272503E-2,-7.18629E-2,-5.8212455E-2,-4.5892425E-2,-3.4911264E-2,-2.3431763E-2,-1.5528936E-2,-5.503335E-3,5.1188623E-3,1.3703778E-2,2.1523442E-2,2.9173836E-2,3.714165E-2,4.4776514E-2,5.3215828E-2,6.264885E-2,7.1530834E-2,9.585117E-2,1.0855216E-1],"split_indices":[2,2,2,2,2,2,2,3,2,2,2,2,2,2,2,0,2,2,2,2,2,2,2,2,2,2,2,0,3,0,0,0,0,0,0,0,0,0,0,0,0,0,0,0,0,0,0,0,0,0,0,0,0,0,0],"split_type":[0,0,0,0,0,0,0,0,0,0,0,0,0,0,0,0,0,0,0,0,0,0,0,0,0,0,0,0,0,0,0,0,0,0,0,0,0,0,0,0,0,0,0,0,0,0,0,0,0,0,0,0,0,0,0],"sum_hessian":[5.849E3,3.466E3,2.383E3,8.85E2,2.581E3,1.313E3,1.07E3,2.62E2,6.23E2,1.105E3,1.476E3,6.25E2,6.88E2,6.17E2,4.53E2,4.9E1,2.13E2,3.03E2,3.2E2,3.06E2,7.99E2,6.73E2,8.03E2,3.78E2,2.47E2,3.43E2,3.45E2,2.46E2,3.71E2,2.48E2,2.05E2,5E1,1.63E2,1.61E2,1.42E2,1.4E2,1.8E2,1.51E2,1.55E2,3.9E2,4.09E2,3.51E2,3.22E2,3.71E2,4.32E2,1.64E2,2.14E2,9.9E1,1.48E2,1.37E2,2.06E2,2.07E2,1.38E2,2.34E2,1.37E2],"tree_param":{"num_deleted":"0","num_feature":"10","num_nodes":"55","size_leaf_vector":"1"}},{"base_weights":[-5.9282333E-3,-1.1740038E0,1.8865339E0,-2.9261363E0,-5.13191E-1,1.2050706E0,2.8983269E0,-3.9760697E0,-2.3194191E0,-9.613844E-1,-7.897609E-2,7.436766E-1,1.5990667E0,2.4674463E0,3.494539E0,-5.4345026E0,-3.5902073E0,-2.7295942E0,-1.9734833E0,-1.2350883E0,-7.476887E-1,-2.9555696E-1,1.3804527E-1,5.5145955E-1,9.7210884E-1,1.3849251E0,1.8348942E0,9.151656E-2,1.1095351E-1,1.3330966E-1,1.5702225E-1,-2.3516248E-1,-1.7976755E-1,-1.5337014E-1,-1.3174473E-1,-1.1664864E-1,-1.01687945E-1,-8.687404E-2,-7.408027E-2,-5.795036E-2,-4.4342197E-2,-3.4849465E-2,-2.4443954E-2,-1.6022911E-2,-6.805871E-3,1.3163016E-3,9.99501E-3,1.8467583E-2,2.577742E-2,3.347823E-2,4.1998506E-2,5.0591692E-2,5.958588E-2,6.741909E-2,7.693903E-2],"categories":[],"categories_nodes":[],"categories_segments":[],"categories_sizes":[],"default_left":[0,0,0,0,0,0,0,0,0,0,0,0,0,0,0,0,0,0,0,0,0,0,0,0,0,0,0,0,0,0,0,0,0,0,0,0,0,0,0,0,0,0,0,0,0,0,0,0,0,0,0,0,0,0,0],"id":12,"left_children":[1,3,5,7,9,11,13,15,17,19,21,23,25,27,29,31,33,35,37,39,41,43,45,47,49,51,53,-1,-1,-1,-1,-1,-1,-1,-1,-1,-1,-1,-1,-1,-1,-1,-1,-1,-1,-1,-1,-1,-1,-1,-1,-1,-1,-1,-1],"loss_changes":[1.2991341E4,4.2060576E3,1.5430557E3,6.2460645E2,5.137004E2,2.4276978E2,2.2309766E2,1.8476904E2,8.443213E1,7.50542E1,6.3118393E1,2.6687256E1,3.397046E1,2.2642578E1,1.3138672E1,4.512207E0,8.361816E0,2.623291E0,4.3393555E0,1.3750732E1,1.1820374E1,8.78212E0,7.881093E0,2.5319138E0,2.088501E0,2.9342651E0,1.2714844E0,0E0,0E0,0E0,0E0,0E0,0E0,0E0,0E0,0E0,0E0,0E0,0E0,0E0,0E0,0E0,0E0,0E0,0E0,0E0,0E0,0E0,0E0,0E0,0E0,0E0,0E0,0E0,0E0],"parents":[2147483647,0,0,1,1,2,2,3,3,4,4,5,5,6,6,7,7,8,8,9,9,10,10,11,11,12,12,13,13,14,14,15,15,16,16,17,17,18,18,19,19,20,20,21,21,22,22,23,23,24,24,25,25,26,26],"right_children":[2,4,6,8,10,12,14,16,18,20,22,24,26,28,30,32,34,36,38,40,42,44,46,48,50,52,54,-1,-1,-1,-1,-1,-1,-1,-1,-1,-1,-1,-1,-1,-1,-1,-1,-1,-1,-1,-1,-1,-1,-1,-1,-1,-1,-1,-1],"split_conditions":[4.6327815E0,1.3257213E0,7.42783E0,-1.0820502E0,3.2341743E0,5.960807E0,8.968942E0,-3.174859E0,1.2301378E-1,2.440162E0,3.9360754E0,5.2598057E0,6.654362E0,8.185388E0,9.94204E0,-3.39621E0,-1.7372713E0,-4.8906413E-1,7.3130965E-1,1.9643813E0,2.8365784E0,3.5853312E0,4.296157E0,4.948264E0,5.553148E0,6.2895193E0,6.974468E0,9.151656E-2,1.1095351E-1,1.3330966E-1,1.5702225E-1,-2.3516248E-1,-1.7976755E-1,-1.5337014E-1,-1.3174473E-1,-1.1664864E-1,-1.01687945E-1,-8.687404E-2,-7.408027E-2,-5.795036E-2,-4.4342197E-2,-3.4849465E-2,-2.4443954E-2,-1.6022911E-2,-6.805871E-3,1.3163016E-3,9.99501E-3,1.8467583E-2,2.577742E-2,3.347823E-2,4.1998506E-2,5.0591692E-2,5.958588E-2,6.741909E-2,7.693903E-2],"split_indices":[2,2,2,2,2,2,2,3,2,2,2,2,2,2,2,2,2,2,2,2,2,2,2,2,2,2,2,0,0,0,0,0,0,0,0,0,0,0,0,0,0,0,0,0,0,0,0,0,0,0,0,0,0,0,0],"split_type":[0,0,0,0,0,0,0,0,0,0,0,0,0,0,0,0,0,0,0,0,0,0,0,0,0,0,0,0,0,0,0,0,0,0,0,0,0,0,0,0,0,0,0,0,0,0,0,0,0,0,0,0,0,0,0],"sum_hessian":[5.875E3,3.633E3,2.242E3,9.94E2,2.639E3,1.341E3,9.01E2,3.62E2,6.32E2,1.298E3,1.341E3,6.19E2,7.22E2,5.26E2,3.75E2,7.3E1,2.89E2,2.86E2,3.46E2,5.67E2,7.31E2,6.71E2,6.7E2,3.38E2,2.81E2,3.82E2,3.4E2,3.37E2,1.89E2,2.79E2,9.6E1,4.6E1,2.7E1,1.52E2,1.37E2,1.36E2,1.5E2,1.25E2,2.21E2,2.07E2,3.6E2,3.81E2,3.5E2,3.64E2,3.07E2,3.46E2,3.24E2,1.75E2,1.63E2,1.07E2,1.74E2,1.84E2,1.98E2,1.34E2,2.06E2],"tree_param":{"num_deleted":"0","num_feature":"10","num_nodes":"55","size_leaf_vector":"1"}},{"base_weights":[1.543186E-2,-1.1845539E0,1.7097278E0,-2.9551382E0,-5.9389573E-1,1.0156975E0,2.6728058E0,-4.1012516E0,-2.4777584E0,-1.0979524E0,-2.0124394E-1,5.7995594E-1,1.3959789E0,2.2137434E0,3.2696686E0,-2.2574168E-1,-3.7426937E0,-2.8760529E0,-2.0563695E0,-1.5042696E0,-9.297441E-1,-4.5394623E-1,5.4474976E-3,4.2018095E-1,7.8905797E-1,1.1979808E0,1.618274E0,2.0474827E0,9.872564E-2,1.2197106E-1,1.4485744E-1,-1.6312969E-1,-1.4121519E-1,-1.21763125E-1,-1.0503157E-1,-9.015775E-2,-7.5385995E-2,-6.642953E-2,-5.342471E-2,-4.2681966E-2,-3.244129E-2,-2.1906346E-2,-1.4012202E-2,-5.181185E-3,4.775225E-3,1.2773663E-2,1.999967E-2,2.762719E-2,3.5554297E-2,4.350303E-2,5.1826585E-2,6.066403E-2,6.92891E-2,7.672776E-2,8.5980825E-2],"categories":[],"categories_nodes":[],"categories_segments":[],"categories_sizes":[],"default_left":[0,0,0,0,0,0,0,0,0,0,0,0,0,0,0,0,0,0,0,0,0,0,0,0,0,0,0,0,0,0,0,0,0,0,0,0,0,0,0,0,0,0,0,0,0,0,0,0,0,0,0,0,0,0,0],"id":13,"left_children":[1,3,5,7,9,11,13,15,17,19,21,23,25,27,29,-1,31,33,35,37,39,41,43,45,47,49,51,53,-1,-1,-1,-1,-1,-1,-1,-1,-1,-1,-1,-1,-1,-1,-1,-1,-1,-1,-1,-1,-1,-1,-1,-1,-1,-1,-1],"loss_changes":[1.1832814E4,3.5613198E3,1.610147E3,4.5599414E2,5.0565936E2,2.3183936E2,2.694995E2,1.1657471E2,9.545923E1,7.508057E1,7.511121E1,2.1584946E1,3.1027954E1,1.9224854E1,2.2836426E1,0E0,2.0678711E-1,4.958496E0,5.828491E0,6.3846436E0,1.2076599E1,6.0921326E0,1.2195131E1,2.8503113E0,2.1645966E0,2.9047852E0,1.4279175E0,5.336914E-1,0E0,0E0,0E0,0E0,0E0,0E0,0E0,0E0,0E0,0E0,0E0,0E0,0E0,0E0,0E0,0E0,0E0,0E0,0E0,0E0,0E0,0E0,0E0,0E0,0E0,0E0,0E0],"parents":[2147483647,0,0,1,1,2,2,3,3,4,4,5,5,6,6,7,7,8,8,9,9,10,10,11,11,12,12,13,13,14,14,16,16,17,17,18,18,19,19,20,20,21,21,22,22,23,23,24,24,25,25,26,26,27,27],"right_children":[2,4,6,8,10,12,14,16,18,20,22,24,26,28,30,-1,32,34,36,38,40,42,44,46,48,50,52,54,-1,-1,-1,-1,-1,-1,-1,-1,-1,-1,-1,-1,-1,-1,-1,-1,-1,-1,-1,-1,-1,-1,-1,-1,-1,-1,-1],"split_conditions":[4.452921E0,1.030155E0,7.1986914E0,-1.5431821E0,2.9334419E0,5.713734E0,8.729663E0,-3.39621E0,-1.008153E-1,1.9643813E0,3.6320498E0,5.0615907E0,6.4470687E0,7.90766E0,9.730941E0,-2.2574168E-1,-2.396896E0,-7.2031283E-1,5.702448E-1,1.4895276E0,2.440162E0,3.283903E0,4.030776E0,4.7316117E0,5.4039803E0,6.092334E0,6.8193555E0,7.515105E0,9.872564E-2,1.2197106E-1,1.4485744E-1,-1.6312969E-1,-1.4121519E-1,-1.21763125E-1,-1.0503157E-1,-9.015775E-2,-7.5385995E-2,-6.642953E-2,-5.342471E-2,-4.2681966E-2,-3.244129E-2,-2.1906346E-2,-1.4012202E-2,-5.181185E-3,4.775225E-3,1.2773663E-2,1.999967E-2,2.762719E-2,3.5554297E-2,4.350303E-2,5.1826585E-2,6.066403E-2,6.92891E-2,7.672776E-2,8.5980825E-2],"split_indices":[2,3,2,2,2,2,2,3,2,2,2,2,2,2,2,0,2,2,2,2,2,2,2,2,2,2,2,2,0,0,0,0,0,0,0,0,0,0,0,0,0,0,0,0,0,0,0,0,0,0,0,0,0,0,0],"split_type":[0,0,0,0,0,0,0,0,0,0,0,0,0,0,0,0,0,0,0,0,0,0,0,0,0,0,0,0,0,0,0,0,0,0,0,0,0,0,0,0,0,0,0,0,0,0,0,0,0,0,0,0,0,0,0],"sum_hessian":[5.818E3,3.406E3,2.412E3,8.51E2,2.555E3,1.403E3,1.009E3,2.48E2,6.03E2,1.118E3,1.437E3,6.55E2,7.48E2,5.73E2,4.36E2,4.4E1,2.04E2,3.07E2,2.96E2,3.25E2,7.93E2,6.46E2,7.91E2,3.73E2,2.82E2,3.99E2,3.49E2,3.52E2,2.21E2,2.74E2,1.62E2,7.2E1,1.32E2,1.77E2,1.3E2,1.32E2,1.64E2,1.64E2,1.61E2,3.64E2,4.29E2,3.37E2,3.09E2,3.62E2,4.29E2,1.67E2,2.06E2,1.46E2,1.36E2,1.93E2,2.06E2,1.92E2,1.57E2,1.64E2,1.88E2],"tree_param":{"num_deleted":"0","num_feature":"10","num_nodes":"55","size_leaf_vector":"1"}},{"base_weights":[-1.4891938E-2,-1.0985626E0,1.7084386E0,-2.7364414E0,-4.9376324E-1,1.0859988E0,2.6340475E0,-3.7191606E0,-2.17975E0,-9.3301773E-1,-1.1890257E-1,6.673956E-1,1.4509174E0,2.2493632E0,3.2133741E0,-2.1923183E-1,-3.4268503E0,-2.5542505E0,-1.8263276E0,-1.2409418E0,-7.780903E-1,-3.2086745E-1,1.0138154E-1,4.995684E-1,8.8344914E-1,1.2441252E0,1.6475579E0,8.358131E-2,1.0220247E-1,1.22823E-1,1.4479445E-1,-1.5534292E-1,-1.2858559E-1,-1.0984748E-1,-9.5180355E-2,-8.1296526E-2,-6.952003E-2,-5.7753906E-2,-4.5425773E-2,-3.5287302E-2,-2.509095E-2,-1.656523E-2,-7.459791E-3,6.348049E-4,8.810352E-3,1.6732492E-2,2.3900334E-2,3.0961646E-2,3.8155057E-2,4.4653825E-2,5.2542396E-2,6.072026E-2,6.983458E-2],"categories":[],"categories_nodes":[],"categories_segments":[],"categories_sizes":[],"default_left":[0,0,0,0,0,0,0,0,0,0,0,0,0,0,0,0,0,0,0,0,0,0,0,0,0,0,0,0,0,0,0,0,0,0,0,0,0,0,0,0,0,0,0,0,0,0,0,0,0,0,0,0,0],"id":14,"left_children":[1,3,5,7,9,11,13,15,17,19,21,23,25,27,29,-1,31,33,35,37,39,41,43,45,47,49,51,-1,-1,-1,-1,-1,-1,-1,-1,-1,-1,-1,-1,-1,-1,-1,-1,-1,-1,-1,-1,-1,-1,-1,-1,-1,-1],"loss_changes":[1.0932487E4,3.5588223E3,1.2992065E3,5.220054E2,4.322843E2,2.057107E2,1.9512646E2,1.609331E2,7.7528564E1,5.6710815E1,6.311886E1,2.2474762E1,2.7309448E1,2.1485352E1,9.781494E0,0E0,1.6786133E1,3.4935303E0,2.347168E0,6.970581E0,1.2115601E1,9.19648E0,6.898785E0,2.5990982E0,1.3806152E0,1.6921387E0,2.0237427E0,0E0,0E0,0E0,0E0,0E0,0E0,0E0,0E0,0E0,0E0,0E0,0E0,0E0,0E0,0E0,0E0,0E0,0E0,0E0,0E0,0E0,0E0,0E0,0E0,0E0,0E0],"parents":[2147483647,0,0,1,1,2,2,3,3,4,4,5,5,6,6,7,7,8,8,9,9,10,10,11,11,12,12,13,13,14,14,16,16,17,17,18,18,19,19,20,20,21,21,22,22,23,23,24,24,25,25,26,26],"right_children":[2,4,6,8,10,12,14,16,18,20,22,24,26,28,30,-1,32,34,36,38,40,42,44,46,48,50,52,-1,-1,-1,-1,-1,-1,-1,-1,-1,-1,-1,-1,-1,-1,-1,-1,-1,-1,-1,-1,-1,-1,-1,-1,-1,-1],"split_conditions":[4.588124E0,1.2491565E0,7.3756676E0,-1.1890842E0,3.1175914E0,5.9113016E0,8.968942E0,-3.39621E0,1.2301378E-1,2.2667506E0,3.8781953E0,5.2598057E0,6.578586E0,8.185388E0,9.912925E0,-2.1923183E-1,-2.3330443E0,-5.6951463E-1,6.537824E-1,1.7113986E0,2.711152E0,3.5186574E0,4.296157E0,4.948264E0,5.553148E0,6.17845E0,6.921702E0,8.358131E-2,1.0220247E-1,1.22823E-1,1.4479445E-1,-1.5534292E-1,-1.2858559E-1,-1.0984748E-1,-9.5180355E-2,-8.1296526E-2,-6.952003E-2,-5.7753906E-2,-4.5425773E-2,-3.5287302E-2,-2.509095E-2,-1.656523E-2,-7.459791E-3,6.348049E-4,8.810352E-3,1.6732492E-2,2.3900334E-2,3.0961646E-2,3.8155057E-2,4.4653825E-2,5.2542396E-2,6.072026E-2,6.983458E-2],"split_indices":[2,2,2,2,2,2,2,2,2,2,2,2,2,2,3,0,2,2,2,2,2,2,2,2,2,2,2,0,0,0,0,0,0,0,0,0,0,0,0,0,0,0,0,0,0,0,0,0,0,0,0,0,0],"split_type":[0,0,0,0,0,0,0,0,0,0,0,0,0,0,0,0,0,0,0,0,0,0,0,0,0,0,0,0,0,0,0,0,0,0,0,0,0,0,0,0,0,0,0,0,0,0,0,0,0,0,0,0,0],"sum_hessian":[5.852E3,3.593E3,2.259E3,9.68E2,2.625E3,1.352E3,9.07E2,3.48E2,6.2E2,1.208E3,1.417E3,6.31E2,7.21E2,5.48E2,3.59E2,4.7E1,3.01E2,2.98E2,3.22E2,4.02E2,8.06E2,7.39E2,6.78E2,3.57E2,2.74E2,3.55E2,3.66E2,3.65E2,1.83E2,2.72E2,8.7E1,9E1,2.11E2,1.35E2,1.63E2,9E1,2.32E2,1.33E2,2.69E2,4.74E2,3.32E2,4.35E2,3.04E2,3.95E2,2.83E2,1.98E2,1.59E2,1.12E2,1.62E2,1.31E2,2.24E2,1.65E2,2.01E2],"tree_param":{"num_deleted":"0","num_feature":"10","num_nodes":"53","size_leaf_vector":"1"}},{"base_weights":[1.1165631E-4,-1.1079286E0,1.5399449E0,-2.8216133E0,-5.8556885E-1,8.680021E-1,2.4058616E0,-3.8675144E0,-2.4038124E0,-1.0780944E0,-2.1511059E-1,4.6893114E-1,1.2166145E0,1.992153E0,2.9901516E0,-2.1084206E-1,-1.3972254E-1,-2.7024305E0,-2.0055947E0,-1.4609206E0,-8.867761E-1,-4.35492E-1,-6.91505E-3,3.364307E-1,6.430901E-1,1.0444764E0,1.4115684E0,7.14546E-2,2.1694546E0,1.0752144E-1,3.2095542E0,-1.1533112E-1,-1.00046955E-1,-8.68521E-2,-7.393918E-2,-6.3604556E-2,-5.1006276E-2,-4.0146075E-2,-3.1307235E-2,-2.1219417E-2,-1.3485245E-2,-4.7531147E-3,3.850175E-3,1.0829706E-2,1.6793327E-2,2.2202535E-2,2.9058272E-2,3.7358053E-2,4.5224346E-2,5.1750664E-2,5.9146073E-2,8.221551E-2,9.2169814E-2,1.2272742E-1,1.4182664E-1],"categories":[],"categories_nodes":[],"categories_segments":[],"categories_sizes":[],"default_left":[0,0,0,0,0,0,0,0,0,0,0,0,0,0,0,0,0,0,0,0,0,0,0,0,0,0,0,0,0,0,0,0,0,0,0,0,0,0,0,0,0,0,0,0,0,0,0,0,0,0,0,0,0,0,0],"id":15,"left_children":[1,3,5,7,9,11,13,15,17,19,21,23,25,27,29,-1,-1,31,33,35,37,39,41,43,45,47,49,-1,51,-1,53,-1,-1,-1,-1,-1,-1,-1,-1,-1,-1,-1,-1,-1,-1,-1,-1,-1,-1,-1,-1,-1,-1,-1,-1],"loss_changes":[9.887414E3,3.015037E3,1.4088896E3,3.3460547E2,4.7124512E2,1.8960791E2,2.5003076E2,9.8786865E1,6.17666E1,7.992944E1,6.771946E1,1.4529297E1,2.2990234E1,1.8855713E1,2.0339111E1,0E0,0E0,4.435547E0,2.3910522E0,6.804199E0,8.24176E0,6.5205383E0,8.786384E0,1.8860016E0,1.6148605E0,2.6662903E0,7.659912E-1,0E0,3.3789062E-1,0E0,9.0527344E-1,0E0,0E0,0E0,0E0,0E0,0E0,0E0,0E0,0E0,0E0,0E0,0E0,0E0,0E0,0E0,0E0,0E0,0E0,0E0,0E0,0E0,0E0,0E0,0E0],"parents":[2147483647,0,0,1,1,2,2,3,3,4,4,5,5,6,6,7,7,8,8,9,9,10,10,11,11,12,12,13,13,14,14,17,17,18,18,19,19,20,20,21,21,22,22,23,23,24,24,25,25,26,26,28,28,30,30],"right_children":[2,4,6,8,10,12,14,16,18,20,22,24,26,28,30,-1,-1,32,34,36,38,40,42,44,46,48,50,-1,52,-1,54,-1,-1,-1,-1,-1,-1,-1,-1,-1,-1,-1,-1,-1,-1,-1,-1,-1,-1,-1,-1,-1,-1,-1,-1],"split_conditions":[4.4099054E0,8.740511E-1,7.0445995E0,-1.7372713E0,2.8365784E0,5.553148E0,8.529891E0,-3.39621E0,-1.8922533E-1,1.9082232E0,3.6320498E0,4.948264E0,6.3241787E0,7.6672E0,9.550581E0,-2.1084206E-1,-1.3972254E-1,-9.2735165E-1,2.9646835E-1,1.4132527E0,2.394079E0,3.2495408E0,4.030776E0,4.6934776E0,5.199261E0,5.960807E0,6.578586E0,7.14546E-2,8.09168E0,1.0752144E-1,1.0090562E1,-1.1533112E-1,-1.00046955E-1,-8.68521E-2,-7.393918E-2,-6.3604556E-2,-5.1006276E-2,-4.0146075E-2,-3.1307235E-2,-2.1219417E-2,-1.3485245E-2,-4.7531147E-3,3.850175E-3,1.0829706E-2,1.6793327E-2,2.2202535E-2,2.9058272E-2,3.7358053E-2,4.5224346E-2,5.1750664E-2,5.9146073E-2,8.221551E-2,9.2169814E-2,1.2272742E-1,1.4182664E-1],"split_indices":[2,2,2,2,2,2,2,2,2,2,2,2,2,2,2,0,0,2,2,2,2,2,2,2,2,2,2,0,2,0,2,0,0,0,0,0,0,0,0,0,0,0,0,0,0,0,0,0,0,0,0,0,0,0,0],"split_type":[0,0,0,0,0,0,0,0,0,0,0,0,0,0,0,0,0,0,0,0,0,0,0,0,0,0,0,0,0,0,0,0,0,0,0,0,0,0,0,0,0,0,0,0,0,0,0,0,0,0,0,0,0,0,0],"sum_hessian":[5.793E3,3.369E3,2.424E3,7.86E2,2.583E3,1.366E3,1.058E3,2.22E2,5.64E2,1.108E3,1.475E3,6.38E2,7.28E2,6.22E2,4.36E2,4.4E1,1.78E2,3.19E2,2.45E2,3.67E2,7.41E2,7.16E2,7.59E2,3.64E2,2.74E2,3.9E2,3.38E2,2.93E2,3.29E2,1.89E2,2.47E2,1.61E2,1.58E2,1.13E2,1.32E2,2.12E2,1.55E2,3.45E2,3.96E2,3.62E2,3.54E2,3.64E2,3.95E2,2.06E2,1.58E2,1.37E2,1.37E2,1.76E2,2.14E2,1.3E2,2.08E2,1.87E2,1.42E2,1.81E2,6.6E1],"tree_param":{"num_deleted":"0","num_feature":"10","num_nodes":"55","size_leaf_vector":"1"}},{"base_weights":[1.6641733E-3,-1.0639806E0,1.4872538E0,-2.6035678E0,-5.3285587E-1,8.343391E-1,2.3073208E0,-3.4110272E0,-2.1267045E0,-9.8965013E-1,-2.0183884E-1,4.607789E-1,1.18426E0,1.8866978E0,2.8404489E0,-1.8730763E-1,-1.2402998E-1,-2.4352524E0,-1.8012003E0,-1.317429E0,-8.2874E-1,-4.0954095E-1,-7.588855E-3,3.429617E-1,6.575043E-1,1.0163903E0,1.355529E0,6.718589E-2,2.034779E0,9.970799E-2,3.0455756E0,-1.0234383E-1,-8.913977E-2,-7.7525444E-2,-6.578176E-2,-5.8860593E-2,-4.7171377E-2,-3.724841E-2,-2.8767893E-2,-1.9410605E-2,-1.2159297E-2,-4.543873E-3,3.6562933E-3,1.0335147E-2,1.6786199E-2,2.3159984E-2,2.9705476E-2,3.7511498E-2,4.429235E-2,5.0269745E-2,5.75201E-2,7.65093E-2,8.5374765E-2,1.1684786E-1,1.3686095E-1],"categories":[],"categories_nodes":[],"categories_segments":[],"categories_sizes":[],"default_left":[0,0,0,0,0,0,0,0,0,0,0,0,0,0,0,0,0,0,0,0,0,0,0,0,0,0,0,0,0,0,0,0,0,0,0,0,0,0,0,0,0,0,0,0,0,0,0,0,0,0,0,0,0,0,0],"id":16,"left_children":[1,3,5,7,9,11,13,15,17,19,21,23,25,27,29,-1,-1,31,33,35,37,39,41,43,45,47,49,-1,51,-1,53,-1,-1,-1,-1,-1,-1,-1,-1,-1,-1,-1,-1,-1,-1,-1,-1,-1,-1,-1,-1,-1,-1,-1,-1],"loss_changes":[9.213703E3,2.7698418E3,1.2997148E3,3.2735205E2,3.809923E2,1.7657526E2,2.3615381E2,1.12136475E2,5.075171E1,5.476294E1,5.902328E1,1.5002197E1,1.8718994E1,1.5131592E1,2.6148682E1,0E0,0E0,1.4133301E0,2.6260986E0,5.65094E0,7.3335876E0,5.503784E0,7.9546328E0,2.5706787E0,1.207428E0,1.5128784E0,9.873047E-1,0E0,1.4733887E-1,0E0,3.7058105E0,0E0,0E0,0E0,0E0,0E0,0E0,0E0,0E0,0E0,0E0,0E0,0E0,0E0,0E0,0E0,0E0,0E0,0E0,0E0,0E0,0E0,0E0,0E0,0E0],"parents":[2147483647,0,0,1,1,2,2,3,3,4,4,5,5,6,6,7,7,8,8,9,9,10,10,11,11,12,12,13,13,14,14,17,17,18,18,19,19,20,20,21,21,22,22,23,23,24,24,25,25,26,26,28,28,30,30],"right_children":[2,4,6,8,10,12,14,16,18,20,22,24,26,28,30,-1,-1,32,34,36,38,40,42,44,46,48,50,-1,52,-1,54,-1,-1,-1,-1,-1,-1,-1,-1,-1,-1,-1,-1,-1,-1,-1,-1,-1,-1,-1,-1,-1,-1,-1,-1],"split_conditions":[4.4099054E0,1.036063E0,7.0445995E0,-1.3019532E0,2.8745642E0,5.6297965E0,8.424563E0,-3.174859E0,-2.1530118E-2,2.0095956E0,3.6320498E0,5.025202E0,6.3241787E0,7.5701504E0,9.2620535E0,-1.8730763E-1,-1.2402998E-1,-5.6951463E-1,6.537824E-1,1.4895276E0,2.459264E0,3.3019183E0,4.030776E0,4.6934776E0,5.3243876E0,6.041243E0,6.623794E0,6.718589E-2,7.90766E0,9.970799E-2,1.0090562E1,-1.0234383E-1,-8.913977E-2,-7.7525444E-2,-6.578176E-2,-5.8860593E-2,-4.7171377E-2,-3.724841E-2,-2.8767893E-2,-1.9410605E-2,-1.2159297E-2,-4.543873E-3,3.6562933E-3,1.0335147E-2,1.6786199E-2,2.3159984E-2,2.9705476E-2,3.7511498E-2,4.429235E-2,5.0269745E-2,5.75201E-2,7.65093E-2,8.5374765E-2,1.1684786E-1,1.3686095E-1],"split_indices":[2,2,2,2,2,2,2,3,2,2,2,2,2,2,2,0,0,2,2,2,2,2,2,2,2,2,2,0,2,0,2,0,0,0,0,0,0,0,0,0,0,0,0,0,0,0,0,0,0,0,0,0,0,0,0],"split_type":[0,0,0,0,0,0,0,0,0,0,0,0,0,0,0,0,0,0,0,0,0,0,0,0,0,0,0,0,0,0,0,0,0,0,0,0,0,0,0,0,0,0,0,0,0,0,0,0,0,0,0,0,0,0,0],"sum_hessian":[5.818E3,3.388E3,2.43E3,8.68E2,2.52E3,1.354E3,1.076E3,3.2E2,5.48E2,1.058E3,1.462E3,6.56E2,6.98E2,6.04E2,4.72E2,6E1,2.6E2,2.78E2,2.7E2,3.46E2,7.12E2,7.06E2,7.56E2,4.12E2,2.44E2,3.56E2,3.42E2,2.57E2,3.47E2,1.8E2,2.92E2,1.67E2,1.11E2,1.38E2,1.32E2,1.59E2,1.87E2,3.64E2,3.48E2,4.09E2,2.97E2,3.65E2,3.91E2,1.98E2,2.14E2,1.31E2,1.13E2,1.97E2,1.59E2,1.63E2,1.79E2,1.65E2,1.82E2,2.26E2,6.6E1],"tree_param":{"num_deleted":"0","num_feature":"10","num_nodes":"55","size_leaf_vector":"1"}},{"base_weights":[8.468662E-3,-9.8855877E-1,1.4947305E0,-2.3974624E0,-4.33827E-1,9.2118937E-1,2.3272746E0,-3.2081506E0,-1.8611984E0,-8.0854136E-1,-1.0643908E-1,5.3643495E-1,1.2461076E0,1.975021E0,2.8569672E0,-4.293805E0,-2.8683624E0,-2.1910267E0,-1.5930693E0,-1.024112E0,-6.510521E-1,-2.7549922E-1,8.573496E-2,3.9543462E-1,7.236643E-1,1.0569373E0,1.4274358E0,1.8148603E0,8.876031E-2,1.0949869E-1,1.3158058E-1,-1.9348438E-1,-1.4675872E-1,-1.2330764E-1,-1.0682906E-1,-9.329315E-2,-8.084483E-2,-6.8427525E-2,-5.9621044E-2,-4.71111E-2,-3.670484E-2,-2.9894825E-2,-2.164363E-2,-1.4443573E-2,-6.5568076E-3,3.7533438E-4,7.1742204E-3,1.2787381E-2,1.8860662E-2,2.566399E-2,3.2258987E-2,3.8884554E-2,4.5405224E-2,5.1782582E-2,6.051173E-2,6.6896796E-2,7.5179435E-2],"categories":[],"categories_nodes":[],"categories_segments":[],"categories_sizes":[],"default_left":[0,0,0,0,0,0,0,0,0,0,0,0,0,0,0,0,0,0,0,0,0,0,0,0,0,0,0,0,0,0,0,0,0,0,0,0,0,0,0,0,0,0,0,0,0,0,0,0,0,0,0,0,0,0,0,0,0],"id":17,"left_children":[1,3,5,7,9,11,13,15,17,19,21,23,25,27,29,31,33,35,37,39,41,43,45,47,49,51,53,55,-1,-1,-1,-1,-1,-1,-1,-1,-1,-1,-1,-1,-1,-1,-1,-1,-1,-1,-1,-1,-1,-1,-1,-1,-1,-1,-1,-1,-1],"loss_changes":[8.529488E3,2.6914465E3,1.101355E3,4.170337E2,3.032941E2,1.7060034E2,1.7012207E2,1.3007617E2,4.851001E1,3.847766E1,4.294156E1,1.6319061E1,2.3943237E1,1.820752E1,1.0326904E1,1.2805786E1,4.347412E0,1.552124E0,1.406189E0,6.8558044E0,6.6812134E0,6.654499E0,4.4229774E0,1.9297829E0,1.3106384E0,1.330719E0,2.3060303E0,6.933594E-2,0E0,0E0,0E0,0E0,0E0,0E0,0E0,0E0,0E0,0E0,0E0,0E0,0E0,0E0,0E0,0E0,0E0,0E0,0E0,0E0,0E0,0E0,0E0,0E0,0E0,0E0,0E0,0E0,0E0],"parents":[2147483647,0,0,1,1,2,2,3,3,4,4,5,5,6,6,7,7,8,8,9,9,10,10,11,11,12,12,13,13,14,14,15,15,16,16,17,17,18,18,19,19,20,20,21,21,22,22,23,23,24,24,25,25,26,26,27,27],"right_children":[2,4,6,8,10,12,14,16,18,20,22,24,26,28,30,32,34,36,38,40,42,44,46,48,50,52,54,56,-1,-1,-1,-1,-1,-1,-1,-1,-1,-1,-1,-1,-1,-1,-1,-1,-1,-1,-1,-1,-1,-1,-1,-1,-1,-1,-1,-1,-1],"split_conditions":[4.5187197E0,1.3257213E0,7.337181E0,-9.2735165E-1,3.1483674E0,5.821004E0,8.968942E0,-2.6823823E0,2.9646835E-1,2.376848E0,3.8781953E0,5.156694E0,6.4975863E0,8.09168E0,1.0060261E1,-3.39621E0,-1.7743125E0,-3.5353702E-1,8.740511E-1,1.9643813E0,2.75691E0,3.5186574E0,4.2706704E0,4.85004E0,5.507717E0,6.17845E0,6.8193555E0,7.5701504E0,8.876031E-2,1.0949869E-1,1.3158058E-1,-1.9348438E-1,-1.4675872E-1,-1.2330764E-1,-1.0682906E-1,-9.329315E-2,-8.084483E-2,-6.8427525E-2,-5.9621044E-2,-4.71111E-2,-3.670484E-2,-2.9894825E-2,-2.164363E-2,-1.4443573E-2,-6.5568076E-3,3.7533438E-4,7.1742204E-3,1.2787381E-2,1.8860662E-2,2.566399E-2,3.2258987E-2,3.8884554E-2,4.5405224E-2,5.1782582E-2,6.051173E-2,6.6896796E-2,7.5179435E-2],"split_indices":[2,2,2,2,2,2,2,2,2,2,2,2,2,2,3,2,3,2,2,2,2,2,2,2,2,2,2,2,0,0,0,0,0,0,0,0,0,0,0,0,0,0,0,0,0,0,0,0,0,0,0,0,0,0,0,0,0],"split_type":[0,0,0,0,0,0,0,0,0,0,0,0,0,0,0,0,0,0,0,0,0,0,0,0,0,0,0,0,0,0,0,0,0,0,0,0,0,0,0,0,0,0,0,0,0,0,0,0,0,0,0,0,0,0,0,0,0],"sum_hessian":[5.754E3,3.444E3,2.31E3,9.72E2,2.472E3,1.369E3,9.41E2,3.85E2,5.87E2,1.152E3,1.32E3,6.28E2,7.41E2,5.68E2,3.73E2,8.9E1,2.96E2,2.6E2,3.27E2,4.84E2,6.68E2,7.02E2,6.18E2,3.6E2,2.68E2,3.66E2,3.75E2,3.48E2,2.2E2,2.98E2,7.5E1,4.4E1,4.5E1,1.35E2,1.61E2,1.35E2,1.25E2,1.45E2,1.82E2,1.94E2,2.9E2,3.53E2,3.15E2,3.96E2,3.06E2,3.41E2,2.77E2,1.83E2,1.77E2,1.39E2,1.29E2,1.82E2,1.84E2,1.53E2,2.22E2,1.17E2,2.31E2],"tree_param":{"num_deleted":"0","num_feature":"10","num_nodes":"57","size_leaf_vector":"1"}},{"base_weights":[-1.0489637E-2,-1.013196E0,1.336227E0,-2.497505E0,-5.3873646E-1,7.580595E-1,2.1700323E0,-3.4191074E0,-2.1270819E0,-9.706982E-1,-2.21851E-1,4.0403646E-1,1.0991155E0,1.7780716E0,2.6444116E0,-1.876426E-1,-1.2322786E-1,-9.803221E-2,-1.8190334E0,-1.3040572E0,-8.068611E-1,-4.0142372E-1,-2.8859016E-2,2.8012854E-1,5.8508694E-1,9.3979985E-1,1.2744086E0,6.4045705E-2,7.7277824E-2,9.711323E-2,1.162932E-1,-7.914E-2,-6.5390125E-2,-5.6510985E-2,-4.5609195E-2,-3.6211886E-2,-2.8473986E-2,-1.950833E-2,-1.2382526E-2,-5.18956E-3,2.0375343E-3,9.005548E-3,1.4783316E-2,1.9479586E-2,2.6258064E-2,3.324115E-2,4.04805E-2,4.7590666E-2,5.4442447E-2],"categories":[],"categories_nodes":[],"categories_segments":[],"categories_sizes":[],"default_left":[0,0,0,0,0,0,0,0,0,0,0,0,0,0,0,0,0,0,0,0,0,0,0,0,0,0,0,0,0,0,0,0,0,0,0,0,0,0,0,0,0,0,0,0,0,0,0,0,0],"id":18,"left_children":[1,3,5,7,9,11,13,15,17,19,21,23,25,27,29,-1,-1,-1,31,33,35,37,39,41,43,45,47,-1,-1,-1,-1,-1,-1,-1,-1,-1,-1,-1,-1,-1,-1,-1,-1,-1,-1,-1,-1,-1,-1],"loss_changes":[7.7929395E3,2.328296E3,1.1857158E3,2.661748E2,3.4308563E2,1.7535577E2,1.8272363E2,8.368945E1,5.278247E1,5.689612E1,5.017044E1,1.5898552E1,1.9496216E1,1.2016357E1,1.8793457E1,0E0,0E0,0E0,5.522827E0,4.5872803E0,6.033264E0,5.79364E0,5.6335297E0,2.0172424E0,1.7105179E0,2.2380066E0,9.476929E-1,0E0,0E0,0E0,0E0,0E0,0E0,0E0,0E0,0E0,0E0,0E0,0E0,0E0,0E0,0E0,0E0,0E0,0E0,0E0,0E0,0E0,0E0],"parents":[2147483647,0,0,1,1,2,2,3,3,4,4,5,5,6,6,7,7,8,8,9,9,10,10,11,11,12,12,13,13,14,14,18,18,19,19,20,20,21,21,22,22,23,23,24,24,25,25,26,26],"right_children":[2,4,6,8,10,12,14,16,18,20,22,24,26,28,30,-1,-1,-1,32,34,36,38,40,42,44,46,48,-1,-1,-1,-1,-1,-1,-1,-1,-1,-1,-1,-1,-1,-1,-1,-1,-1,-1,-1,-1,-1,-1],"split_conditions":[4.36119E0,8.740511E-1,7.1002755E0,-1.7372713E0,2.7816043E0,5.6297965E0,8.529891E0,-3.39621E0,-4.8906413E-1,1.8436401E0,3.5853312E0,4.948264E0,6.363552E0,7.701861E0,9.649698E0,-1.876426E-1,-1.2322786E-1,-9.803221E-2,2.9646835E-1,1.4132527E0,2.376848E0,3.2341743E0,3.9629614E0,4.6934776E0,5.199261E0,5.960807E0,6.704031E0,6.4045705E-2,7.7277824E-2,9.711323E-2,1.162932E-1,-7.914E-2,-6.5390125E-2,-5.6510985E-2,-4.5609195E-2,-3.6211886E-2,-2.8473986E-2,-1.950833E-2,-1.2382526E-2,-5.18956E-3,2.0375343E-3,9.005548E-3,1.4783316E-2,1.9479586E-2,2.6258064E-2,3.324115E-2,4.04805E-2,4.7590666E-2,5.4442447E-2],"split_indices":[2,2,2,2,2,2,2,3,2,2,2,2,2,2,2,0,0,0,2,2,2,2,2,2,2,2,2,0,0,0,0,0,0,0,0,0,0,0,0,0,0,0,0,0,0,0,0,0,0],"split_type":[0,0,0,0,0,0,0,0,0,0,0,0,0,0,0,0,0,0,0,0,0,0,0,0,0,0,0,0,0,0,0,0,0,0,0,0,0,0,0,0,0,0,0,0,0,0,0,0,0],"sum_hessian":[5.769E3,3.307E3,2.462E3,8E2,2.507E3,1.455E3,1.007E3,2.27E2,5.73E2,1.06E3,1.447E3,7.15E2,7.4E2,5.54E2,4.53E2,4.5E1,1.82E2,2.76E2,2.97E2,3.47E2,7.13E2,7.49E2,6.98E2,4.26E2,2.89E2,3.91E2,3.49E2,2.63E2,2.91E2,2.54E2,1.99E2,1.54E2,1.43E2,2.04E2,1.43E2,3.46E2,3.67E2,3.84E2,3.65E2,3.08E2,3.9E2,2.66E2,1.6E2,1.25E2,1.64E2,1.61E2,2.3E2,1.84E2,1.65E2],"tree_param":{"num_deleted":"0","num_feature":"10","num_nodes":"49","size_leaf_vector":"1"}},{"base_weights":[1.0930256E-2,-9.042841E-1,1.3725764E0,-2.3349907E0,-4.3849578E-1,8.38315E-1,2.116943E0,-3.2512493E0,-1.9497237E0,-8.300381E-1,-1.277456E-1,4.976935E-1,1.1364357E0,1.8257074E0,2.6482403E0,-1.811638E-1,-2.9501224E0,-2.2745295E0,-1.6415188E0,-1.1431639E0,-6.9498533E-1,-3.022462E-1,5.2256767E-2,3.6770114E-1,6.7189837E-1,9.7191614E-1,1.3005406E0,1.6770072E0,8.301998E-2,1.0191986E-1,1.203753E-1,-1.3039121E-1,-1.10670835E-1,-9.6617356E-2,-8.394037E-2,-7.2813764E-2,-6.0041904E-2,-5.1982526E-2,-4.0947575E-2,-3.1340234E-2,-2.2831384E-2,-1.5267419E-2,-8.257972E-3,-8.466649E-4,6.408051E-3,1.17616635E-2,1.7511988E-2,2.2987276E-2,2.9311439E-2,3.582418E-2,4.1865397E-2,4.8510935E-2,5.5576842E-2,6.0693692E-2,6.933754E-2],"categories":[],"categories_nodes":[],"categories_segments":[],"categories_sizes":[],"default_left":[0,0,0,0,0,0,0,0,0,0,0,0,0,0,0,0,0,0,0,0,0,0,0,0,0,0,0,0,0,0,0,0,0,0,0,0,0,0,0,0,0,0,0,0,0,0,0,0,0,0,0,0,0,0,0],"id":19,"left_children":[1,3,5,7,9,11,13,15,17,19,21,23,25,27,29,-1,31,33,35,37,39,41,43,45,47,49,51,53,-1,-1,-1,-1,-1,-1,-1,-1,-1,-1,-1,-1,-1,-1,-1,-1,-1,-1,-1,-1,-1,-1,-1,-1,-1,-1,-1],"loss_changes":[7.2391597E3,2.3140723E3,9.2682275E2,2.9477344E2,3.1891754E2,1.3763898E2,1.4602979E2,8.3221924E1,5.663086E1,4.8260193E1,4.596939E1,1.4178009E1,1.8309814E1,2.0031494E1,4.7495117E0,0E0,2.677002E0,2.1485596E0,5.130066E0,5.1722717E0,8.49115E0,5.5754547E0,5.717787E0,1.7662506E0,1.1830139E0,1.1495361E0,1.12323E0,9.918213E-1,0E0,0E0,0E0,0E0,0E0,0E0,0E0,0E0,0E0,0E0,0E0,0E0,0E0,0E0,0E0,0E0,0E0,0E0,0E0,0E0,0E0,0E0,0E0,0E0,0E0,0E0,0E0],"parents":[2147483647,0,0,1,1,2,2,3,3,4,4,5,5,6,6,7,7,8,8,9,9,10,10,11,11,12,12,13,13,14,14,16,16,17,17,18,18,19,19,20,20,21,21,22,22,23,23,24,24,25,25,26,26,27,27],"right_children":[2,4,6,8,10,12,14,16,18,20,22,24,26,28,30,-1,32,34,36,38,40,42,44,46,48,50,52,54,-1,-1,-1,-1,-1,-1,-1,-1,-1,-1,-1,-1,-1,-1,-1,-1,-1,-1,-1,-1,-1,-1,-1,-1,-1,-1,-1],"split_conditions":[4.5187197E0,1.036063E0,7.293702E0,-1.5431821E0,3.0084116E0,5.821004E0,9.078075E0,-3.39621E0,-1.8922533E-1,2.0604753E0,3.7790675E0,5.156694E0,6.4975863E0,8.135096E0,1.0090562E1,-1.811638E-1,-2.396896E0,-8.3057183E-1,4.464151E-1,1.4895276E0,2.5705032E0,3.4072456E0,4.2513056E0,4.85004E0,5.4392557E0,6.17845E0,6.8803787E0,7.515105E0,8.301998E-2,1.0191986E-1,1.203753E-1,-1.3039121E-1,-1.10670835E-1,-9.6617356E-2,-8.394037E-2,-7.2813764E-2,-6.0041904E-2,-5.1982526E-2,-4.0947575E-2,-3.1340234E-2,-2.2831384E-2,-1.5267419E-2,-8.257972E-3,-8.466649E-4,6.408051E-3,1.17616635E-2,1.7511988E-2,2.2987276E-2,2.9311439E-2,3.582418E-2,4.1865397E-2,4.8510935E-2,5.5576842E-2,6.0693692E-2,6.933754E-2],"split_indices":[2,2,2,2,2,2,2,2,2,2,2,2,2,2,2,0,2,2,2,2,2,2,2,2,2,2,2,2,0,0,0,0,0,0,0,0,0,0,0,0,0,0,0,0,0,0,0,0,0,0,0,0,0,0,0],"split_type":[0,0,0,0,0,0,0,0,0,0,0,0,0,0,0,0,0,0,0,0,0,0,0,0,0,0,0,0,0,0,0,0,0,0,0,0,0,0,0,0,0,0,0,0,0,0,0,0,0,0,0,0,0,0,0],"sum_hessian":[5.807E3,3.473E3,2.334E3,8.52E2,2.621E3,1.36E3,9.74E2,2.5E2,6.02E2,1.159E3,1.462E3,6.36E2,7.24E2,6.32E2,3.42E2,4.5E1,2.05E2,2.9E2,3.12E2,3.47E2,8.12E2,7.42E2,7.2E2,3.66E2,2.7E2,3.65E2,3.59E2,4.01E2,2.31E2,2.74E2,6.8E1,7E1,1.35E2,1.54E2,1.36E2,1.32E2,1.8E2,1.46E2,2.01E2,4.71E2,3.41E2,4.04E2,3.38E2,4.29E2,2.91E2,1.81E2,1.85E2,1.08E2,1.62E2,1.87E2,1.78E2,1.88E2,1.71E2,1.12E2,2.89E2],"tree_param":{"num_deleted":"0","num_feature":"10","num_nodes":"55","size_leaf_vector":"1"}},{"base_weights":[-5.848681E-3,-9.309994E-1,1.2273211E0,-2.3170702E0,-4.931855E-1,6.831975E-1,1.9728036E0,-3.5097718E0,-2.0636342E0,-8.698493E-1,-1.9572392E-1,3.6373985E-1,9.952363E-1,1.6069044E0,2.426587E0,-1.7088933E-1,-1.2262114E-1,-2.4000738E0,-1.7200084E0,-1.1880845E0,-7.172906E-1,-3.6662057E-1,-2.9500978E-2,2.5178975E-1,5.1808727E-1,8.301891E-1,1.1380126E0,5.7195377E-2,1.7312427E0,8.4878355E-2,2.6015778E0,-1.026325E-1,-8.880196E-2,-7.521382E-2,-6.126843E-2,-5.1925544E-2,-4.1586082E-2,-3.2214295E-2,-2.505666E-2,-1.7540812E-2,-1.1343498E-2,-5.0437143E-3,1.5682197E-3,8.316707E-3,1.33895455E-2,1.7825823E-2,2.3883337E-2,2.957959E-2,3.5529587E-2,4.127431E-2,4.8229355E-2,6.536669E-2,7.304249E-2,9.947703E-2,1.1719535E-1],"categories":[],"categories_nodes":[],"categories_segments":[],"categories_sizes":[],"default_left":[0,0,0,0,0,0,0,0,0,0,0,0,0,0,0,0,0,0,0,0,0,0,0,0,0,0,0,0,0,0,0,0,0,0,0,0,0,0,0,0,0,0,0,0,0,0,0,0,0,0,0,0,0,0,0],"id":20,"left_children":[1,3,5,7,9,11,13,15,17,19,21,23,25,27,29,-1,-1,31,33,35,37,39,41,43,45,47,49,-1,51,-1,53,-1,-1,-1,-1,-1,-1,-1,-1,-1,-1,-1,-1,-1,-1,-1,-1,-1,-1,-1,-1,-1,-1,-1,-1],"loss_changes":[6.7151504E3,2.0396636E3,1.0220686E3,2.3669238E2,2.8632373E2,1.4517542E2,1.7276611E2,3.4323975E1,7.309888E1,5.391162E1,4.0611115E1,1.2362419E1,1.6446106E1,1.05546875E1,1.9693848E1,0E0,0E0,4.2994385E0,7.2036743E0,4.5965576E0,5.617798E0,4.0845337E0,4.8230333E0,1.4624805E0,1.467865E0,1.1649017E0,1.5810852E0,0E0,1.730957E-1,0E0,3.8552246E0,0E0,0E0,0E0,0E0,0E0,0E0,0E0,0E0,0E0,0E0,0E0,0E0,0E0,0E0,0E0,0E0,0E0,0E0,0E0,0E0,0E0,0E0,0E0,0E0],"parents":[2147483647,0,0,1,1,2,2,3,3,4,4,5,5,6,6,7,7,8,8,9,9,10,10,11,11,12,12,13,13,14,14,17,17,18,18,19,19,20,20,21,21,22,22,23,23,24,24,25,25,26,26,28,28,30,30],"right_children":[2,4,6,8,10,12,14,16,18,20,22,24,26,28,30,-1,-1,32,34,36,38,40,42,44,46,48,50,-1,52,-1,54,-1,-1,-1,-1,-1,-1,-1,-1,-1,-1,-1,-1,-1,-1,-1,-1,-1,-1,-1,-1,-1,-1,-1,-1],"split_conditions":[4.36119E0,8.740511E-1,7.0445995E0,-2.3507254E0,2.8365784E0,5.553148E0,8.424563E0,-3.39621E0,-6.485563E-1,1.9082232E0,3.5853312E0,4.9271884E0,6.252369E0,7.5701504E0,9.2620535E0,-1.7088933E-1,-1.2262114E-1,-1.391508E0,1.2301378E-1,1.4132527E0,2.440162E0,3.2495408E0,3.9360754E0,4.6934776E0,5.199261E0,5.865861E0,6.5449944E0,5.7195377E-2,7.974406E0,8.4878355E-2,1.0060261E1,-1.026325E-1,-8.880196E-2,-7.521382E-2,-6.126843E-2,-5.1925544E-2,-4.1586082E-2,-3.2214295E-2,-2.505666E-2,-1.7540812E-2,-1.1343498E-2,-5.0437143E-3,1.5682197E-3,8.316707E-3,1.33895455E-2,1.7825823E-2,2.3883337E-2,2.957959E-2,3.5529587E-2,4.127431E-2,4.8229355E-2,6.536669E-2,7.304249E-2,9.947703E-2,1.1719535E-1],"split_indices":[2,2,2,3,2,2,2,3,2,2,2,2,2,2,2,0,0,2,2,2,2,2,2,2,2,2,2,0,2,0,3,0,0,0,0,0,0,0,0,0,0,0,0,0,0,0,0,0,0,0,0,0,0,0,0],"split_type":[0,0,0,0,0,0,0,0,0,0,0,0,0,0,0,0,0,0,0,0,0,0,0,0,0,0,0,0,0,0,0,0,0,0,0,0,0,0,0,0,0,0,0,0,0,0,0,0,0,0,0,0,0,0,0],"sum_hessian":[5.884E3,3.362E3,2.522E3,8.06E2,2.556E3,1.459E3,1.063E3,1.39E2,6.67E2,1.127E3,1.429E3,7.22E2,7.37E2,5.91E2,4.72E2,4.8E1,9.1E1,3.34E2,3.33E2,3.63E2,7.64E2,7.04E2,7.25E2,4.2E2,3.02E2,3.45E2,3.92E2,2.49E2,3.42E2,1.77E2,2.95E2,1.67E2,1.67E2,1.75E2,1.58E2,2.04E2,1.59E2,3.84E2,3.8E2,3.75E2,3.29E2,3.01E2,4.24E2,2.77E2,1.43E2,1.61E2,1.41E2,1.4E2,2.05E2,1.59E2,2.33E2,1.78E2,1.64E2,2.25E2,7E1],"tree_param":{"num_deleted":"0","num_feature":"10","num_nodes":"55","size_leaf_vector":"1"}},{"base_weights":[-9.4917465E-5,-9.141587E-1,1.1755902E0,-2.2036107E0,-4.7379297E-1,6.4601415E-1,1.9047581E0,-3.0969896E0,-1.8893217E0,-8.4282357E-1,-2.0236513E-1,3.3084098E-1,9.46198E-1,1.572132E0,2.3642664E0,-1.6471952E-1,-1.1091026E-1,-2.1869695E0,-1.5969812E0,-1.1348473E0,-7.110931E-1,-3.6531043E-1,-4.2331427E-2,2.2743018E-1,4.7377333E-1,7.880851E-1,1.0910405E0,1.4383148E0,7.075849E-2,2.216099E0,1.0626344E-1,-9.188154E-2,-7.982504E-2,-7.002335E-2,-5.7253074E-2,-4.9277075E-2,-4.040187E-2,-3.224582E-2,-2.532314E-2,-1.7619465E-2,-1.1820139E-2,-5.0878E-3,1.5121765E-3,7.720111E-3,1.2498564E-2,1.5819604E-2,2.1373017E-2,2.7432308E-2,3.379555E-2,3.966407E-2,4.637558E-2,5.3972475E-2,6.1229505E-2,8.121075E-2,9.3050346E-2],"categories":[],"categories_nodes":[],"categories_segments":[],"categories_sizes":[],"default_left":[0,0,0,0,0,0,0,0,0,0,0,0,0,0,0,0,0,0,0,0,0,0,0,0,0,0,0,0,0,0,0,0,0,0,0,0,0,0,0,0,0,0,0,0,0,0,0,0,0,0,0,0,0,0,0],"id":21,"left_children":[1,3,5,7,9,11,13,15,17,19,21,23,25,27,29,-1,-1,31,33,35,37,39,41,43,45,47,49,51,-1,53,-1,-1,-1,-1,-1,-1,-1,-1,-1,-1,-1,-1,-1,-1,-1,-1,-1,-1,-1,-1,-1,-1,-1,-1,-1],"loss_changes":[6.2748877E3,1.8642788E3,9.8499634E2,2.2888037E2,2.4523413E2,1.3980426E2,1.6043823E2,6.0086914E1,5.0543457E1,3.912323E1,3.6830963E1,1.0593521E1,1.6499512E1,1.394397E1,1.3560059E1,0E0,0E0,1.8394775E0,5.560364E0,2.644806E0,4.813965E0,3.5433044E0,4.860447E0,1.1750965E0,1.2249527E0,1.546936E0,1.5213928E0,1.0440063E0,0E0,1.5001221E0,0E0,0E0,0E0,0E0,0E0,0E0,0E0,0E0,0E0,0E0,0E0,0E0,0E0,0E0,0E0,0E0,0E0,0E0,0E0,0E0,0E0,0E0,0E0,0E0,0E0],"parents":[2147483647,0,0,1,1,2,2,3,3,4,4,5,5,6,6,7,7,8,8,9,9,10,10,11,11,12,12,13,13,14,14,17,17,18,18,19,19,20,20,21,21,22,22,23,23,24,24,25,25,26,26,27,27,29,29],"right_children":[2,4,6,8,10,12,14,16,18,20,22,24,26,28,30,-1,-1,32,34,36,38,40,42,44,46,48,50,52,-1,54,-1,-1,-1,-1,-1,-1,-1,-1,-1,-1,-1,-1,-1,-1,-1,-1,-1,-1,-1,-1,-1,-1,-1,-1,-1],"split_conditions":[4.338494E0,9.28654E-1,7.0445995E0,-1.910543E0,2.7816043E0,5.507717E0,8.729663E0,-3.39621E0,-4.8906413E-1,1.8314449E0,3.5186574E0,4.891269E0,6.252369E0,7.8437366E0,9.8067465E0,-1.6471952E-1,-1.1091026E-1,-9.2735165E-1,2.9646835E-1,1.4132527E0,2.3546271E0,3.1932256E0,3.9629614E0,4.6934776E0,5.094197E0,5.821004E0,6.5449944E0,7.46556E0,7.075849E-2,9.157296E0,1.0626344E-1,-9.188154E-2,-7.982504E-2,-7.002335E-2,-5.7253074E-2,-4.9277075E-2,-4.040187E-2,-3.224582E-2,-2.532314E-2,-1.7619465E-2,-1.1820139E-2,-5.0878E-3,1.5121765E-3,7.720111E-3,1.2498564E-2,1.5819604E-2,2.1373017E-2,2.7432308E-2,3.379555E-2,3.966407E-2,4.637558E-2,5.3972475E-2,6.1229505E-2,8.121075E-2,9.3050346E-2],"split_indices":[2,3,2,2,2,2,2,3,2,3,2,2,2,2,2,0,0,2,2,2,2,2,2,2,2,2,2,2,0,2,0,0,0,0,0,0,0,0,0,0,0,0,0,0,0,0,0,0,0,0,0,0,0,0,0],"split_type":[0,0,0,0,0,0,0,0,0,0,0,0,0,0,0,0,0,0,0,0,0,0,0,0,0,0,0,0,0,0,0,0,0,0,0,0,0,0,0,0,0,0,0,0,0,0,0,0,0,0,0,0,0,0,0],"sum_hessian":[5.837E3,3.284E3,2.553E3,8.35E2,2.449E3,1.48E3,1.073E3,2.15E2,6.2E2,1.037E3,1.412E3,7.23E2,7.57E2,6.25E2,4.48E2,4.9E1,1.66E2,3.04E2,3.16E2,3.2E2,7.17E2,6.99E2,7.13E2,4.21E2,3.02E2,3.65E2,3.92E2,3.77E2,2.48E2,3.03E2,1.45E2,1.86E2,1.18E2,1.59E2,1.57E2,1.75E2,1.45E2,3.19E2,3.98E2,3.34E2,3.65E2,3.46E2,3.67E2,3.02E2,1.19E2,1.35E2,1.67E2,1.35E2,2.3E2,1.66E2,2.26E2,2E2,1.77E2,1.2E2,1.83E2],"tree_param":{"num_deleted":"0","num_feature":"10","num_nodes":"55","size_leaf_vector":"1"}},{"base_weights":[5.1785596E-3,-7.8196293E-1,1.2434671E0,-1.9533021E0,-3.4314767E-1,8.0200356E-1,1.9245454E0,-2.7046506E0,-1.5633111E0,-6.5731704E-1,-6.208835E-2,4.8376232E-1,1.0572203E0,1.6453377E0,2.349478E0,-3.710928E0,-2.4456673E0,-1.8539631E0,-1.3389962E0,-8.93263E-1,-5.442852E-1,-2.104511E-1,9.1483444E-2,3.7317562E-1,6.494712E-1,9.3186E-1,4.9687E-2,1.5339161E0,7.518441E-2,9.0172E-2,1.0775621E-1,-1.6008094E-1,-1.2021444E-1,-1.05500534E-1,-9.095449E-2,-7.908777E-2,-6.922776E-2,-5.9698503E-2,-5.002947E-2,-4.1427158E-2,-3.266726E-2,-2.564704E-2,-1.767826E-2,-1.1354797E-2,-4.8236614E-3,1.1298597E-3,6.8067345E-3,1.249181E-2,1.8034149E-2,2.2808367E-2,2.758047E-2,3.4150973E-2,4.0740903E-2,5.7936933E-2,6.4356804E-2],"categories":[],"categories_nodes":[],"categories_segments":[],"categories_sizes":[],"default_left":[0,0,0,0,0,0,0,0,0,0,0,0,0,0,0,0,0,0,0,0,0,0,0,0,0,0,0,0,0,0,0,0,0,0,0,0,0,0,0,0,0,0,0,0,0,0,0,0,0,0,0,0,0,0,0],"id":22,"left_children":[1,3,5,7,9,11,13,15,17,19,21,23,25,27,29,31,33,35,37,39,41,43,45,47,49,51,-1,53,-1,-1,-1,-1,-1,-1,-1,-1,-1,-1,-1,-1,-1,-1,-1,-1,-1,-1,-1,-1,-1,-1,-1,-1,-1,-1,-1],"loss_changes":[5.6230903E3,1.8122131E3,6.725615E2,2.7736328E2,2.2662592E2,1.101109E2,1.0066016E2,7.6143555E1,3.891797E1,3.1837097E1,3.0914808E1,1.0899353E1,1.634784E1,1.1082031E1,5.30249E0,1.3225708E0,2.6711426E0,7.404175E-1,3.03656E0,3.4186096E0,7.866516E0,4.5179615E0,3.3140488E0,1.5947723E0,3.748703E-1,2.2026672E0,0E0,2.9296875E-2,0E0,0E0,0E0,0E0,0E0,0E0,0E0,0E0,0E0,0E0,0E0,0E0,0E0,0E0,0E0,0E0,0E0,0E0,0E0,0E0,0E0,0E0,0E0,0E0,0E0,0E0,0E0],"parents":[2147483647,0,0,1,1,2,2,3,3,4,4,5,5,6,6,7,7,8,8,9,9,10,10,11,11,12,12,13,13,14,14,15,15,16,16,17,17,18,18,19,19,20,20,21,21,22,22,23,23,24,24,25,25,27,27],"right_children":[2,4,6,8,10,12,14,16,18,20,22,24,26,28,30,32,34,36,38,40,42,44,46,48,50,52,-1,54,-1,-1,-1,-1,-1,-1,-1,-1,-1,-1,-1,-1,-1,-1,-1,-1,-1,-1,-1,-1,-1,-1,-1,-1,-1,-1,-1],"split_conditions":[4.6142645E0,1.2391275E0,7.407504E0,-1.2056409E0,3.1753125E0,5.8981934E0,9.069008E0,6.7338516E-4,3.5270613E-2,2.2405396E0,3.9273627E0,5.305636E0,6.746593E0,8.272629E0,1.0060261E1,1.937975E1,-2.0834496E0,-6.115672E-1,6.385326E-1,1.7017436E0,2.666033E0,3.5251834E0,4.3089395E0,4.9792776E0,5.5381503E0,6.357854E0,4.9687E-2,7.758649E0,7.518441E-2,9.0172E-2,1.0775621E-1,-1.6008094E-1,-1.2021444E-1,-1.05500534E-1,-9.095449E-2,-7.908777E-2,-6.922776E-2,-5.9698503E-2,-5.002947E-2,-4.1427158E-2,-3.266726E-2,-2.564704E-2,-1.767826E-2,-1.1354797E-2,-4.8236614E-3,1.1298597E-3,6.8067345E-3,1.249181E-2,1.8034149E-2,2.2808367E-2,2.758047E-2,3.4150973E-2,4.0740903E-2,5.7936933E-2,6.4356804E-2],"split_indices":[3,3,3,3,3,3,3,8,3,3,3,3,3,3,3,0,3,3,3,3,3,3,3,3,3,3,0,3,0,0,0,0,0,0,0,0,0,0,0,0,0,0,0,0,0,0,0,0,0,0,0,0,0,0,0],"split_type":[0,0,0,0,0,0,0,0,0,0,0,0,0,0,0,0,0,0,0,0,0,0,0,0,0,0,0,0,0,0,0,0,0,0,0,0,0,0,0,0,0,0,0,0,0,0,0,0,0,0,0,0,0,0,0],"sum_hessian":[5.767E3,3.526E3,2.241E3,9.6E2,2.566E3,1.361E3,8.8E2,3.26E2,6.34E2,1.211E3,1.355E3,6.07E2,7.54E2,5.34E2,3.46E2,6.4E1,2.62E2,2.73E2,3.61E2,3.9E2,8.21E2,6.89E2,6.66E2,3.66E2,2.41E2,4.53E2,3.01E2,3.67E2,1.67E2,2.77E2,6.9E1,4.2E1,2.2E1,1.17E2,1.45E2,1.29E2,1.44E2,1.26E2,2.35E2,1.32E2,2.58E2,4.19E2,4.02E2,3.78E2,3.11E2,3.7E2,2.96E2,2.08E2,1.58E2,8.6E1,1.55E2,2.44E2,2.09E2,1.81E2,1.86E2],"tree_param":{"num_deleted":"0","num_feature":"10","num_nodes":"55","size_leaf_vector":"1"}},{"base_weights":[1.2410932E-3,-8.2882375E-1,1.0894533E0,-1.9933465E0,-4.2697787E-1,5.9643644E-1,1.7298793E0,-2.8207653E0,-1.6906073E0,-7.508429E-1,-1.654466E-1,3.2203412E-1,8.6621857E-1,1.390513E0,2.1275296E0,-3.8104568E0,-2.5411768E0,-1.9439425E0,-1.4150442E0,-1.0167465E0,-6.2362623E-1,-3.1120956E-1,-1.708237E-2,2.2096945E-1,4.5270538E-1,7.1431303E-1,9.759758E-1,4.984168E-2,6.006962E-2,7.485697E-2,2.2985744E0,-1.5386686E-1,-4.216734E-2,-1.1528037E-1,-9.610668E-2,-8.2885824E-2,-7.08555E-2,-6.1872702E-2,-5.1662657E-2,-4.4084497E-2,-3.539695E-2,-2.7908603E-2,-2.1551047E-2,-1.4738917E-2,-9.413924E-3,-3.502067E-3,2.3703098E-3,7.3356205E-3,1.1779619E-2,1.5536055E-2,2.0891078E-2,2.5207529E-2,2.9961513E-2,3.5724103E-2,4.1735716E-2,8.7873854E-2,1.03336774E-1],"categories":[],"categories_nodes":[],"categories_segments":[],"categories_sizes":[],"default_left":[0,0,0,0,0,0,0,0,0,0,0,0,0,0,0,0,0,0,0,0,0,0,0,0,0,0,0,0,0,0,0,0,0,0,0,0,0,0,0,0,0,0,0,0,0,0,0,0,0,0,0,0,0,0,0,0,0],"id":23,"left_children":[1,3,5,7,9,11,13,15,17,19,21,23,25,27,29,31,33,35,37,39,41,43,45,47,49,51,53,-1,-1,-1,55,-1,-1,-1,-1,-1,-1,-1,-1,-1,-1,-1,-1,-1,-1,-1,-1,-1,-1,-1,-1,-1,-1,-1,-1,-1,-1],"loss_changes":[5.2959697E3,1.5555793E3,8.000027E2,2.0890112E2,2.0942566E2,1.0595236E2,1.4589062E2,5.3129395E1,4.1019897E1,3.674524E1,2.9622318E1,9.316025E0,1.1357239E1,7.738037E0,1.7864014E1,7.36084E-1,1.572998E0,3.4969482E0,2.9486084E0,3.0308228E0,4.338928E0,2.915039E0,3.66334E0,1.0621815E0,1.1839943E0,4.2478943E-1,1.3979797E0,0E0,0E0,0E0,2.9886475E0,0E0,0E0,0E0,0E0,0E0,0E0,0E0,0E0,0E0,0E0,0E0,0E0,0E0,0E0,0E0,0E0,0E0,0E0,0E0,0E0,0E0,0E0,0E0,0E0,0E0,0E0],"parents":[2147483647,0,0,1,1,2,2,3,3,4,4,5,5,6,6,7,7,8,8,9,9,10,10,11,11,12,12,13,13,14,14,15,15,16,16,17,17,18,18,19,19,20,20,21,21,22,22,23,23,24,24,25,25,26,26,30,30],"right_children":[2,4,6,8,10,12,14,16,18,20,22,24,26,28,30,32,34,36,38,40,42,44,46,48,50,52,54,-1,-1,-1,56,-1,-1,-1,-1,-1,-1,-1,-1,-1,-1,-1,-1,-1,-1,-1,-1,-1,-1,-1,-1,-1,-1,-1,-1,-1,-1],"split_conditions":[4.36119E0,9.89095E-1,6.974468E0,-1.7372713E0,2.8745642E0,5.553148E0,8.359711E0,-3.39621E0,-1.8922533E-1,1.9643813E0,3.6320498E0,4.9271884E0,6.17845E0,7.515105E0,9.2620535E0,1.937975E1,-2.6823823E0,-8.3057183E-1,4.464151E-1,1.5765841E0,2.4728594E0,3.283903E0,4.030776E0,4.6934776E0,5.199261E0,5.780777E0,6.4975863E0,4.984168E-2,6.006962E-2,7.485697E-2,1.0090562E1,-1.5386686E-1,-4.216734E-2,-1.1528037E-1,-9.610668E-2,-8.2885824E-2,-7.08555E-2,-6.1872702E-2,-5.1662657E-2,-4.4084497E-2,-3.539695E-2,-2.7908603E-2,-2.1551047E-2,-1.4738917E-2,-9.413924E-3,-3.502067E-3,2.3703098E-3,7.3356205E-3,1.1779619E-2,1.5536055E-2,2.0891078E-2,2.5207529E-2,2.9961513E-2,3.5724103E-2,4.1735716E-2,8.7873854E-2,1.03336774E-1],"split_indices":[2,2,2,2,2,2,2,2,2,2,2,2,2,2,2,0,2,2,2,2,2,2,2,2,2,2,2,0,0,0,2,0,0,0,0,0,0,0,0,0,0,0,0,0,0,0,0,0,0,0,0,0,0,0,0,0,0],"split_type":[0,0,0,0,0,0,0,0,0,0,0,0,0,0,0,0,0,0,0,0,0,0,0,0,0,0,0,0,0,0,0,0,0,0,0,0,0,0,0,0,0,0,0,0,0,0,0,0,0,0,0,0,0,0,0,0,0],"sum_hessian":[5.861E3,3.325E3,2.536E3,8.52E2,2.473E3,1.434E3,1.102E3,2.26E2,6.26E2,1.104E3,1.369E3,7.12E2,7.22E2,5.97E2,5.05E2,4.7E1,1.79E2,3.23E2,3.03E2,3.55E2,7.49E2,6.9E2,6.79E2,4.03E2,3.09E2,3.06E2,4.16E2,2.65E2,3.32E2,2.07E2,2.98E2,4.6E1,1E0,4.6E1,1.33E2,1.79E2,1.44E2,1.41E2,1.62E2,2.11E2,1.44E2,3.96E2,3.53E2,3.91E2,2.99E2,3.53E2,3.26E2,2.69E2,1.34E2,1.64E2,1.45E2,9.5E1,2.11E2,1.93E2,2.23E2,2.26E2,7.2E1],"tree_param":{"num_deleted":"0","num_feature":"10","num_nodes":"57","size_leaf_vector":"1"}},{"base_weights":[-4.6227393E-3,-7.8517246E-1,1.0574386E0,-1.9474019E0,-4.050331E-1,5.789382E-1,1.6604601E0,-3.0246758E0,-1.72624E0,-7.299707E-1,-1.5426439E-1,3.0991235E-1,8.2700735E-1,1.3557669E0,2.0523803E0,-1.4815105E-1,-1.0579468E-1,-2.0195496E0,-1.4278681E0,-9.957556E-1,-6.091847E-1,-2.9957655E-1,-1.1381924E-2,2.3388626E-1,4.456948E-1,6.807615E-1,9.3727344E-1,4.828421E-2,1.4710476E0,7.447363E-2,2.2550771E0,-8.612445E-2,-7.365448E-2,-6.2337387E-2,-5.0888527E-2,-4.306656E-2,-3.486379E-2,-2.7644144E-2,-2.0999435E-2,-1.4243381E-2,-9.102779E-3,-3.3959143E-3,2.4135082E-3,7.3194914E-3,1.18266605E-2,1.606727E-2,2.0234585E-2,2.4250617E-2,2.9160181E-2,3.4132104E-2,4.0099196E-2,5.5568546E-2,6.215667E-2,8.668498E-2,1.0219282E-1],"categories":[],"categories_nodes":[],"categories_segments":[],"categories_sizes":[],"default_left":[0,0,0,0,0,0,0,0,0,0,0,0,0,0,0,0,0,0,0,0,0,0,0,0,0,0,0,0,0,0,0,0,0,0,0,0,0,0,0,0,0,0,0,0,0,0,0,0,0,0,0,0,0,0,0],"id":24,"left_children":[1,3,5,7,9,11,13,15,17,19,21,23,25,27,29,-1,-1,31,33,35,37,39,41,43,45,47,49,-1,51,-1,53,-1,-1,-1,-1,-1,-1,-1,-1,-1,-1,-1,-1,-1,-1,-1,-1,-1,-1,-1,-1,-1,-1,-1,-1],"loss_changes":[4.7749937E3,1.4660176E3,7.0309106E2,1.896687E2,2.0384225E2,9.0639465E1,1.26066895E2,2.5798096E1,5.6714355E1,3.4385803E1,2.935485E1,6.6573257E0,1.0779144E1,8.678345E0,1.3953491E1,0E0,0E0,4.150757E0,4.947571E0,2.4670715E0,4.8240967E0,2.7713203E0,3.7697134E0,1.2728996E0,4.1649628E-1,6.649475E-1,1.3402405E0,0E0,1.4025879E-1,0E0,3.4240723E-1,0E0,0E0,0E0,0E0,0E0,0E0,0E0,0E0,0E0,0E0,0E0,0E0,0E0,0E0,0E0,0E0,0E0,0E0,0E0,0E0,0E0,0E0,0E0,0E0],"parents":[2147483647,0,0,1,1,2,2,3,3,4,4,5,5,6,6,7,7,8,8,9,9,10,10,11,11,12,12,13,13,14,14,17,17,18,18,19,19,20,20,21,21,22,22,23,23,24,24,25,25,26,26,28,28,30,30],"right_children":[2,4,6,8,10,12,14,16,18,20,22,24,26,28,30,-1,-1,32,34,36,38,40,42,44,46,48,50,-1,52,-1,54,-1,-1,-1,-1,-1,-1,-1,-1,-1,-1,-1,-1,-1,-1,-1,-1,-1,-1,-1,-1,-1,-1,-1,-1],"split_conditions":[4.392232E0,9.28654E-1,6.974468E0,-2.3507254E0,2.8745642E0,5.507717E0,8.424563E0,-3.39621E0,-5.6951463E-1,1.9082232E0,3.6320498E0,4.9849467E0,6.17845E0,7.5701504E0,9.606254E0,-1.4815105E-1,-1.0579468E-1,-1.3019532E0,2.9646835E-1,1.4895276E0,2.440162E0,3.283903E0,4.030776E0,4.6934776E0,5.2598057E0,5.821004E0,6.4975863E0,4.828421E-2,7.974406E0,7.447363E-2,1.0265369E1,-8.612445E-2,-7.365448E-2,-6.2337387E-2,-5.0888527E-2,-4.306656E-2,-3.486379E-2,-2.7644144E-2,-2.0999435E-2,-1.4243381E-2,-9.102779E-3,-3.3959143E-3,2.4135082E-3,7.3194914E-3,1.18266605E-2,1.606727E-2,2.0234585E-2,2.4250617E-2,2.9160181E-2,3.4132104E-2,4.0099196E-2,5.5568546E-2,6.215667E-2,8.668498E-2,1.0219282E-1],"split_indices":[2,3,2,3,2,2,2,2,2,2,2,2,2,2,2,0,0,2,2,2,2,2,2,2,2,2,2,0,2,0,3,0,0,0,0,0,0,0,0,0,0,0,0,0,0,0,0,0,0,0,0,0,0,0,0],"split_type":[0,0,0,0,0,0,0,0,0,0,0,0,0,0,0,0,0,0,0,0,0,0,0,0,0,0,0,0,0,0,0,0,0,0,0,0,0,0,0,0,0,0,0,0,0,0,0,0,0,0,0,0,0,0,0],"sum_hessian":[5.758E3,3.319E3,2.439E3,8.17E2,2.502E3,1.361E3,1.078E3,1.37E2,6.8E2,1.089E3,1.413E3,6.54E2,7.07E2,6.09E2,4.69E2,4.6E1,9.1E1,3.4E2,3.4E2,3.38E2,7.51E2,7E2,7.13E2,4.21E2,2.33E2,3.07E2,4E2,2.71E2,3.38E2,2.47E2,2.22E2,1.88E2,1.52E2,1.8E2,1.6E2,2E2,1.38E2,3.77E2,3.74E2,3.9E2,3.1E2,3.52E2,3.61E2,2.33E2,1.88E2,1.39E2,9.4E1,1.26E2,1.81E2,1.81E2,2.19E2,1.79E2,1.59E2,1.78E2,4.4E1],"tree_param":{"num_deleted":"0","num_feature":"10","num_nodes":"55","size_leaf_vector":"1"}},{"base_weights":[-1.5267589E-2,-7.720374E-1,9.89452E-1,-1.9063587E0,-4.1856712E-1,5.480656E-1,1.6027602E0,-2.7218134E0,-1.6537585E0,-7.341112E-1,-1.7314546E-1,2.8984898E-1,8.0872166E-1,1.306371E0,1.9755414E0,-3.5099201E0,-2.4377935E0,-1.922497E0,-1.4275404E0,-9.980443E-1,-6.067717E-1,-3.0558476E-1,-2.7480178E-2,1.9761525E-1,4.2057133E-1,6.7337966E-1,9.2887735E-1,4.7082987E-2,5.6695603E-2,6.93255E-2,2.1203482E0,-1.4178103E-1,-3.836097E-2,-1.0836782E-1,-9.0860076E-2,-8.037479E-2,-7.078242E-2,-6.215554E-2,-5.16755E-2,-4.3519635E-2,-3.4969646E-2,-2.8486133E-2,-2.2007756E-2,-1.4808769E-2,-9.359106E-3,-3.9622635E-3,1.3845835E-3,6.510049E-3,1.0786687E-2,1.416498E-2,1.922121E-2,2.4198545E-2,2.9213104E-2,3.4467444E-2,3.9904065E-2,8.123065E-2,9.531403E-2],"categories":[],"categories_nodes":[],"categories_segments":[],"categories_sizes":[],"default_left":[0,0,0,0,0,0,0,0,0,0,0,0,0,0,0,0,0,0,0,0,0,0,0,0,0,0,0,0,0,0,0,0,0,0,0,0,0,0,0,0,0,0,0,0,0,0,0,0,0,0,0,0,0,0,0,0,0],"id":25,"left_children":[1,3,5,7,9,11,13,15,17,19,21,23,25,27,29,31,33,35,37,39,41,43,45,47,49,51,53,-1,-1,-1,55,-1,-1,-1,-1,-1,-1,-1,-1,-1,-1,-1,-1,-1,-1,-1,-1,-1,-1,-1,-1,-1,-1,-1,-1,-1,-1],"loss_changes":[4.4510425E3,1.3379708E3,6.799468E2,1.5884375E2,1.971159E2,9.830118E1,1.13653076E2,3.3077393E1,3.4218018E1,3.6835022E1,2.765606E1,8.802898E0,1.1213318E1,6.786255E0,1.2612305E1,7.496948E-1,1.6455078E-1,9.7961426E-2,3.717102E0,3.0687866E0,4.1037292E0,3.3892212E0,3.0434809E0,1.0463276E0,1.0409927E0,9.0625E-1,9.0896606E-1,0E0,0E0,0E0,1.8863525E0,0E0,0E0,0E0,0E0,0E0,0E0,0E0,0E0,0E0,0E0,0E0,0E0,0E0,0E0,0E0,0E0,0E0,0E0,0E0,0E0,0E0,0E0,0E0,0E0,0E0,0E0],"parents":[2147483647,0,0,1,1,2,2,3,3,4,4,5,5,6,6,7,7,8,8,9,9,10,10,11,11,12,12,13,13,14,14,15,15,16,16,17,17,18,18,19,19,20,20,21,21,22,22,23,23,24,24,25,25,26,26,30,30],"right_children":[2,4,6,8,10,12,14,16,18,20,22,24,26,28,30,32,34,36,38,40,42,44,46,48,50,52,54,-1,-1,-1,56,-1,-1,-1,-1,-1,-1,-1,-1,-1,-1,-1,-1,-1,-1,-1,-1,-1,-1,-1,-1,-1,-1,-1,-1,-1,-1],"split_conditions":[4.338494E0,7.9822767E-1,7.0445995E0,-2.0572886E0,2.7816043E0,5.553148E0,8.424563E0,-3.39621E0,-6.485563E-1,1.8436401E0,3.5853312E0,4.9271884E0,6.252369E0,7.6266875E0,9.2620535E0,1.937975E1,-2.6823823E0,-1.2056409E0,4.5737892E-2,1.3257213E0,2.2934232E0,3.2341743E0,3.9629614E0,4.6934776E0,5.156694E0,5.9113016E0,6.623794E0,4.7082987E-2,5.6695603E-2,6.93255E-2,1.0090562E1,-1.4178103E-1,-3.836097E-2,-1.0836782E-1,-9.0860076E-2,-8.037479E-2,-7.078242E-2,-6.215554E-2,-5.16755E-2,-4.3519635E-2,-3.4969646E-2,-2.8486133E-2,-2.2007756E-2,-1.4808769E-2,-9.359106E-3,-3.9622635E-3,1.3845835E-3,6.510049E-3,1.0786687E-2,1.416498E-2,1.922121E-2,2.4198545E-2,2.9213104E-2,3.4467444E-2,3.9904065E-2,8.123065E-2,9.531403E-2],"split_indices":[2,2,2,2,2,2,2,2,2,2,2,2,2,2,2,0,2,3,2,2,2,2,2,2,2,2,2,0,0,0,2,0,0,0,0,0,0,0,0,0,0,0,0,0,0,0,0,0,0,0,0,0,0,0,0,0,0],"split_type":[0,0,0,0,0,0,0,0,0,0,0,0,0,0,0,0,0,0,0,0,0,0,0,0,0,0,0,0,0,0,0,0,0,0,0,0,0,0,0,0,0,0,0,0,0,0,0,0,0,0,0,0,0,0,0,0,0],"sum_hessian":[5.852E3,3.338E3,2.514E3,7.92E2,2.546E3,1.463E3,1.051E3,1.85E2,6.07E2,1.113E3,1.433E3,7.36E2,7.27E2,5.88E2,4.63E2,4.6E1,1.39E2,2.74E2,3.33E2,3.6E2,7.53E2,7.5E2,6.83E2,4.33E2,3.03E2,3.45E2,3.82E2,2.77E2,3.11E2,1.78E2,2.85E2,4.5E1,1E0,4.7E1,9.2E1,1.67E2,1.07E2,1.67E2,1.66E2,2.04E2,1.56E2,2.59E2,4.94E2,3.92E2,3.58E2,3.17E2,3.66E2,2.94E2,1.39E2,1.47E2,1.56E2,1.62E2,1.83E2,2E2,1.82E2,2.19E2,6.6E1],"tree_param":{"num_deleted":"0","num_feature":"10","num_nodes":"57","size_leaf_vector":"1"}},{"base_weights":[-1.4331704E-2,-7.465856E-1,9.489366E-1,-1.8570691E0,-4.1044307E-1,5.069545E-1,1.5181152E0,-3.0390172E0,-1.6842116E0,-7.32957E-1,-1.7614575E-1,2.6218864E-1,7.418921E-1,1.2270695E0,1.8838888E0,-1.3592982E-1,-1.04060315E-1,-1.9469796E0,-1.4010874E0,-9.787834E-1,-6.028817E-1,-3.1527457E-1,-3.8465112E-2,1.7408024E-1,3.6367E-1,6.106525E-1,8.466695E-1,4.3753367E-2,5.3365134E-2,6.685411E-2,2.0562816E0,-8.334486E-2,-7.12721E-2,-6.0418576E-2,-5.024548E-2,-4.1848622E-2,-3.4222547E-2,-2.8206369E-2,-2.2040233E-2,-1.5627395E-2,-1.0331257E-2,-4.2500203E-3,1.2210688E-3,5.6506232E-3,8.5642105E-3,1.2444405E-2,1.7172268E-2,2.1696737E-2,2.629964E-2,3.0939093E-2,3.636831E-2,7.897172E-2,9.470825E-2],"categories":[],"categories_nodes":[],"categories_segments":[],"categories_sizes":[],"default_left":[0,0,0,0,0,0,0,0,0,0,0,0,0,0,0,0,0,0,0,0,0,0,0,0,0,0,0,0,0,0,0,0,0,0,0,0,0,0,0,0,0,0,0,0,0,0,0,0,0,0,0,0,0],"id":26,"left_children":[1,3,5,7,9,11,13,15,17,19,21,23,25,27,29,-1,-1,31,33,35,37,39,41,43,45,47,49,-1,-1,-1,51,-1,-1,-1,-1,-1,-1,-1,-1,-1,-1,-1,-1,-1,-1,-1,-1,-1,-1,-1,-1,-1,-1],"loss_changes":[4.115761E3,1.2366637E3,6.331787E2,1.5219946E2,1.922572E2,8.146216E1,1.1489722E2,6.404541E0,4.7414917E1,3.3656128E1,2.8261166E1,6.1688194E0,9.43866E0,7.3273315E0,1.4370117E1,0E0,0E0,4.1191406E0,3.3028564E0,2.1708984E0,3.3413696E0,3.0537338E0,3.4779863E0,4.6228218E-1,9.807396E-1,6.820679E-1,1.127655E0,0E0,0E0,0E0,2.066162E0,0E0,0E0,0E0,0E0,0E0,0E0,0E0,0E0,0E0,0E0,0E0,0E0,0E0,0E0,0E0,0E0,0E0,0E0,0E0,0E0,0E0,0E0],"parents":[2147483647,0,0,1,1,2,2,3,3,4,4,5,5,6,6,7,7,8,8,9,9,10,10,11,11,12,12,13,13,14,14,17,17,18,18,19,19,20,20,21,21,22,22,23,23,24,24,25,25,26,26,30,30],"right_children":[2,4,6,8,10,12,14,16,18,20,22,24,26,28,30,-1,-1,32,34,36,38,40,42,44,46,48,50,-1,-1,-1,52,-1,-1,-1,-1,-1,-1,-1,-1,-1,-1,-1,-1,-1,-1,-1,-1,-1,-1,-1,-1,-1,-1],"split_conditions":[4.338494E0,7.3130965E-1,6.921702E0,-2.6823823E0,2.6847475E0,5.4392557E0,8.359711E0,-3.39621E0,-7.2031283E-1,1.7771871E0,3.4968984E0,4.820999E0,6.138823E0,7.515105E0,9.429342E0,-1.3592982E-1,-1.04060315E-1,-1.4597256E0,4.5737892E-2,1.3257213E0,2.2279909E0,3.089769E0,3.9629614E0,4.5187197E0,5.094197E0,5.780777E0,6.4470687E0,4.3753367E-2,5.3365134E-2,6.685411E-2,1.0287081E1,-8.334486E-2,-7.12721E-2,-6.0418576E-2,-5.024548E-2,-4.1848622E-2,-3.4222547E-2,-2.8206369E-2,-2.2040233E-2,-1.5627395E-2,-1.0331257E-2,-4.2500203E-3,1.2210688E-3,5.6506232E-3,8.5642105E-3,1.2444405E-2,1.7172268E-2,2.1696737E-2,2.629964E-2,3.0939093E-2,3.636831E-2,7.897172E-2,9.470825E-2],"split_indices":[2,2,2,2,2,2,2,3,2,2,2,2,2,2,2,0,0,2,2,2,2,2,2,2,2,2,2,0,0,0,2,0,0,0,0,0,0,0,0,0,0,0,0,0,0,0,0,0,0,0,0,0,0],"split_type":[0,0,0,0,0,0,0,0,0,0,0,0,0,0,0,0,0,0,0,0,0,0,0,0,0,0,0,0,0,0,0,0,0,0,0,0,0,0,0,0,0,0,0,0,0,0,0,0,0,0,0,0,0],"sum_hessian":[5.833E3,3.314E3,2.519E3,7.69E2,2.545E3,1.419E3,1.1E3,9.6E1,6.73E2,1.07E3,1.475E3,6.96E2,7.23E2,6.15E2,4.85E2,4.9E1,4.7E1,3.46E2,3.27E2,3.68E2,7.02E2,7.33E2,7.42E2,3.74E2,3.22E2,3.24E2,3.99E2,2.79E2,3.36E2,2.22E2,2.63E2,1.83E2,1.63E2,1.81E2,1.46E2,2.33E2,1.35E2,2.32E2,4.7E2,3.13E2,4.2E2,3.74E2,3.68E2,2.08E2,1.66E2,1.82E2,1.4E2,1.37E2,1.87E2,1.9E2,2.09E2,2.14E2,4.9E1],"tree_param":{"num_deleted":"0","num_feature":"10","num_nodes":"53","size_leaf_vector":"1"}},{"base_weights":[3.2796485E-3,-6.6996896E-1,9.684268E-1,-1.7076632E0,-3.390492E-1,5.7785136E-1,1.5216519E0,-2.6981978E0,-1.5136377E0,-6.173902E-1,-1.0516078E-1,3.3427495E-1,8.065406E-1,1.3003463E0,1.9139872E0,-3.2727144E0,-9.331208E-2,-1.7954196E0,-1.2486448E0,-8.519588E-1,-5.1035374E-1,-2.3371574E-1,1.632772E-2,2.2839035E-1,4.5190945E-1,6.878807E-1,9.226588E-1,4.7027517E-2,1.454536E0,7.2710834E-2,8.681311E-2,-1.3213068E-1,-3.5512544E-2,-7.7477805E-2,-6.61659E-2,-5.5298373E-2,-4.4438127E-2,-3.734432E-2,-2.9418465E-2,-2.3200298E-2,-1.7022148E-2,-1.15154125E-2,-7.1484693E-3,-2.0162696E-3,3.2346223E-3,7.2862445E-3,1.0965053E-2,1.5504352E-2,2.0568077E-2,2.4784962E-2,2.9545063E-2,3.383624E-2,3.9174587E-2,5.3674806E-2,6.089319E-2],"categories":[],"categories_nodes":[],"categories_segments":[],"categories_sizes":[],"default_left":[0,0,0,0,0,0,0,0,0,0,0,0,0,0,0,0,0,0,0,0,0,0,0,0,0,0,0,0,0,0,0,0,0,0,0,0,0,0,0,0,0,0,0,0,0,0,0,0,0,0,0,0,0,0,0],"id":27,"left_children":[1,3,5,7,9,11,13,15,17,19,21,23,25,27,29,31,-1,33,35,37,39,41,43,45,47,49,51,-1,53,-1,-1,-1,-1,-1,-1,-1,-1,-1,-1,-1,-1,-1,-1,-1,-1,-1,-1,-1,-1,-1,-1,-1,-1,-1,-1],"loss_changes":[3.7966873E3,1.1813816E3,5.1791943E2,1.558169E2,1.6991306E2,7.821634E1,8.372925E1,2.0705444E1,4.987793E1,2.9493256E1,2.2181309E1,8.416473E0,9.368561E0,1.05529785E1,4.835327E0,7.105713E-1,0E0,3.513916E0,5.152466E0,2.8517761E0,4.602524E0,2.0044327E0,3.1524186E0,7.15538E-1,1.0944443E0,7.9966736E-1,7.5582886E-1,0E0,1.03515625E-1,0E0,0E0,0E0,0E0,0E0,0E0,0E0,0E0,0E0,0E0,0E0,0E0,0E0,0E0,0E0,0E0,0E0,0E0,0E0,0E0,0E0,0E0,0E0,0E0,0E0,0E0],"parents":[2147483647,0,0,1,1,2,2,3,3,4,4,5,5,6,6,7,7,8,8,9,9,10,10,11,11,12,12,13,13,14,14,15,15,17,17,18,18,19,19,20,20,21,21,22,22,23,23,24,24,25,25,26,26,28,28],"right_children":[2,4,6,8,10,12,14,16,18,20,22,24,26,28,30,32,-1,34,36,38,40,42,44,46,48,50,52,-1,54,-1,-1,-1,-1,-1,-1,-1,-1,-1,-1,-1,-1,-1,-1,-1,-1,-1,-1,-1,-1,-1,-1,-1,-1,-1,-1],"split_conditions":[4.452921E0,9.89095E-1,7.2367744E0,-2.3330443E0,2.9922612E0,5.780777E0,8.968942E0,-3.39621E0,-5.6951463E-1,1.9821869E0,3.7101614E0,5.025202E0,6.4470687E0,7.974406E0,9.94204E0,1.937975E1,-9.331208E-2,-1.391508E0,2.9646835E-1,1.5592177E0,2.5248404E0,3.3262799E0,4.1128197E0,4.7316117E0,5.4039803E0,6.092334E0,6.7572465E0,4.7027517E-2,8.277607E0,7.2710834E-2,8.681311E-2,-1.3213068E-1,-3.5512544E-2,-7.7477805E-2,-6.61659E-2,-5.5298373E-2,-4.4438127E-2,-3.734432E-2,-2.9418465E-2,-2.3200298E-2,-1.7022148E-2,-1.15154125E-2,-7.1484693E-3,-2.0162696E-3,3.2346223E-3,7.2862445E-3,1.0965053E-2,1.5504352E-2,2.0568077E-2,2.4784962E-2,2.9545063E-2,3.383624E-2,3.9174587E-2,5.3674806E-2,6.089319E-2],"split_indices":[2,2,2,2,2,2,2,2,2,3,2,2,2,2,2,0,0,2,2,3,2,2,2,2,2,2,2,0,2,0,0,0,0,0,0,0,0,0,0,0,0,0,0,0,0,0,0,0,0,0,0,0,0,0,0],"split_type":[0,0,0,0,0,0,0,0,0,0,0,0,0,0,0,0,0,0,0,0,0,0,0,0,0,0,0,0,0,0,0,0,0,0,0,0,0,0,0,0,0,0,0,0,0,0,0,0,0,0,0,0,0,0,0],"sum_hessian":[5.841E3,3.441E3,2.4E3,8.31E2,2.61E3,1.408E3,9.92E2,1.34E2,6.97E2,1.191E3,1.419E3,6.83E2,7.25E2,6.37E2,3.55E2,4.9E1,8.5E1,3.35E2,3.62E2,3.71E2,8.2E2,6.89E2,7.3E2,3.61E2,3.22E2,3.62E2,3.63E2,3.57E2,2.8E2,2.64E2,9.1E1,4.8E1,1E0,1.61E2,1.74E2,1.79E2,1.83E2,2.14E2,1.57E2,4.47E2,3.73E2,3.45E2,3.44E2,3.59E2,3.71E2,1.82E2,1.79E2,1.62E2,1.6E2,1.6E2,2.02E2,1.61E2,2.02E2,1.13E2,1.67E2],"tree_param":{"num_deleted":"0","num_feature":"10","num_nodes":"55","size_leaf_vector":"1"}},{"base_weights":[-2.628348E-3,-6.460436E-1,9.2994833E-1,-1.6209651E0,-3.1529954E-1,5.520841E-1,1.4645075E0,-2.4105933E0,-1.4052405E0,-5.773758E-1,-9.9629745E-2,3.0982757E-1,7.66247E-1,1.257419E0,1.8549563E0,-1.2653957E-1,-2.1425314E0,-1.626786E0,-1.1500591E0,-7.95389E-1,-4.7622195E-1,-2.2268002E-1,1.1858362E-2,2.1996416E-1,4.2163613E-1,6.535737E-1,8.8590705E-1,1.1505779E0,5.7747763E-2,7.091774E-2,8.527027E-2,-9.403262E-2,-7.910609E-2,-6.963948E-2,-5.9280433E-2,-4.953219E-2,-4.0396877E-2,-3.513094E-2,-2.7684156E-2,-2.1585533E-2,-1.566782E-2,-1.0717158E-2,-6.3248137E-3,-1.6295997E-3,3.3808094E-3,7.156694E-3,1.0455325E-2,1.4096434E-2,1.8957555E-2,2.3675898E-2,2.8402152E-2,3.241848E-2,3.7580818E-2,4.2110514E-2,4.7883548E-2],"categories":[],"categories_nodes":[],"categories_segments":[],"categories_sizes":[],"default_left":[0,0,0,0,0,0,0,0,0,0,0,0,0,0,0,0,0,0,0,0,0,0,0,0,0,0,0,0,0,0,0,0,0,0,0,0,0,0,0,0,0,0,0,0,0,0,0,0,0,0,0,0,0,0,0],"id":28,"left_children":[1,3,5,7,9,11,13,15,17,19,21,23,25,27,29,-1,31,33,35,37,39,41,43,45,47,49,51,53,-1,-1,-1,-1,-1,-1,-1,-1,-1,-1,-1,-1,-1,-1,-1,-1,-1,-1,-1,-1,-1,-1,-1,-1,-1,-1,-1],"loss_changes":[3.5156003E3,1.1174214E3,4.8235327E2,1.4617285E2,1.4633432E2,7.255353E1,7.771655E1,3.096289E1,3.7250732E1,2.5401031E1,1.9510548E1,6.5386047E0,9.451965E0,1.1275024E1,3.9615479E0,0E0,1.9311523E-1,3.5040894E0,2.7685242E0,2.551056E0,4.0822754E0,1.9324074E0,2.8583992E0,5.788784E-1,8.938408E-1,9.278259E-1,6.86615E-1,6.4141846E-1,0E0,0E0,0E0,0E0,0E0,0E0,0E0,0E0,0E0,0E0,0E0,0E0,0E0,0E0,0E0,0E0,0E0,0E0,0E0,0E0,0E0,0E0,0E0,0E0,0E0,0E0,0E0],"parents":[2147483647,0,0,1,1,2,2,3,3,4,4,5,5,6,6,7,7,8,8,9,9,10,10,11,11,12,12,13,13,14,14,16,16,17,17,18,18,19,19,20,20,21,21,22,22,23,23,24,24,25,25,26,26,27,27],"right_children":[2,4,6,8,10,12,14,16,18,20,22,24,26,28,30,-1,32,34,36,38,40,42,44,46,48,50,52,54,-1,-1,-1,-1,-1,-1,-1,-1,-1,-1,-1,-1,-1,-1,-1,-1,-1,-1,-1,-1,-1,-1,-1,-1,-1,-1,-1],"split_conditions":[4.452921E0,1.036063E0,7.2367744E0,-2.0572886E0,3.0084116E0,5.713734E0,9.078075E0,-3.39621E0,-1.8922533E-1,2.0985453E0,3.7101614E0,5.025202E0,6.4470687E0,8.135096E0,1.0090562E1,-1.2653957E-1,1.9717213E1,-9.2735165E-1,6.537824E-1,1.6504647E0,2.5705032E0,3.3874736E0,4.1511374E0,4.7316117E0,5.3243876E0,6.092334E0,6.7572465E0,7.515105E0,5.7747763E-2,7.091774E-2,8.527027E-2,-9.403262E-2,-7.910609E-2,-6.963948E-2,-5.9280433E-2,-4.953219E-2,-4.0396877E-2,-3.513094E-2,-2.7684156E-2,-2.1585533E-2,-1.566782E-2,-1.0717158E-2,-6.3248137E-3,-1.6295997E-3,3.3808094E-3,7.156694E-3,1.0455325E-2,1.4096434E-2,1.8957555E-2,2.3675898E-2,2.8402152E-2,3.241848E-2,3.7580818E-2,4.2110514E-2,4.7883548E-2],"split_indices":[2,2,2,2,2,2,2,2,2,2,2,2,2,2,2,0,0,2,2,2,2,2,2,2,2,2,2,2,0,0,0,0,0,0,0,0,0,0,0,0,0,0,0,0,0,0,0,0,0,0,0,0,0,0,0],"split_type":[0,0,0,0,0,0,0,0,0,0,0,0,0,0,0,0,0,0,0,0,0,0,0,0,0,0,0,0,0,0,0,0,0,0,0,0,0,0,0,0,0,0,0,0,0,0,0,0,0,0,0,0,0,0,0],"sum_hessian":[5.857E3,3.466E3,2.391E3,8.77E2,2.589E3,1.402E3,